{"learner":{"attributes":{"scikit_learn":"{\"_estimator_type\": \"classifier\"}"},"feature_names":["Age","BMI","AlcoholConsumption","PhysicalActivity","DietQuality","SleepQuality","SystolicBP","DiastolicBP","CholesterolTotal","CholesterolLDL","CholesterolHDL","CholesterolTriglycerides","MMSE","FunctionalAssessment","MemoryComplaints","BehavioralProblems","ADL"],"feature_types":["int","float","float","float","float","float","int","int","float","float","float","float","float","float","int","int","float"],"gradient_booster":{"model":{"cats":{"enc":[],"feature_segments":[],"sorted_idx":[]},"gbtree_model_param":{"num_parallel_tree":"1","num_trees":"700"},"iteration_indptr":[0,1,2,3,4,5,6,7,8,9,10,11,12,13,14,15,16,17,18,19,20,21,22,23,24,25,26,27,28,29,30,31,32,33,34,35,36,37,38,39,40,41,42,43,44,45,46,47,48,49,50,51,52,53,54,55,56,57,58,59,60,61,62,63,64,65,66,67,68,69,70,71,72,73,74,75,76,77,78,79,80,81,82,83,84,85,86,87,88,89,90,91,92,93,94,95,96,97,98,99,100,101,102,103,104,105,106,107,108,109,110,111,112,113,114,115,116,117,118,119,120,121,122,123,124,125,126,127,128,129,130,131,132,133,134,135,136,137,138,139,140,141,142,143,144,145,146,147,148,149,150,151,152,153,154,155,156,157,158,159,160,161,162,163,164,165,166,167,168,169,170,171,172,173,174,175,176,177,178,179,180,181,182,183,184,185,186,187,188,189,190,191,192,193,194,195,196,197,198,199,200,201,202,203,204,205,206,207,208,209,210,211,212,213,214,215,216,217,218,219,220,221,222,223,224,225,226,227,228,229,230,231,232,233,234,235,236,237,238,239,240,241,242,243,244,245,246,247,248,249,250,251,252,253,254,255,256,257,258,259,260,261,262,263,264,265,266,267,268,269,270,271,272,273,274,275,276,277,278,279,280,281,282,283,284,285,286,287,288,289,290,291,292,293,294,295,296,297,298,299,300,301,302,303,304,305,306,307,308,309,310,311,312,313,314,315,316,317,318,319,320,321,322,323,324,325,326,327,328,329,330,331,332,333,334,335,336,337,338,339,340,341,342,343,344,345,346,347,348,349,350,351,352,353,354,355,356,357,358,359,360,361,362,363,364,365,366,367,368,369,370,371,372,373,374,375,376,377,378,379,380,381,382,383,384,385,386,387,388,389,390,391,392,393,394,395,396,397,398,399,400,401,402,403,404,405,406,407,408,409,410,411,412,413,414,415,416,417,418,419,420,421,422,423,424,425,426,427,428,429,430,431,432,433,434,435,436,437,438,439,440,441,442,443,444,445,446,447,448,449,450,451,452,453,454,455,456,457,458,459,460,461,462,463,464,465,466,467,468,469,470,471,472,473,474,475,476,477,478,479,480,481,482,483,484,485,486,487,488,489,490,491,492,493,494,495,496,497,498,499,500,501,502,503,504,505,506,507,508,509,510,511,512,513,514,515,516,517,518,519,520,521,522,523,524,525,526,527,528,529,530,531,532,533,534,535,536,537,538,539,540,541,542,543,544,545,546,547,548,549,550,551,552,553,554,555,556,557,558,559,560,561,562,563,564,565,566,567,568,569,570,571,572,573,574,575,576,577,578,579,580,581,582,583,584,585,586,587,588,589,590,591,592,593,594,595,596,597,598,599,600,601,602,603,604,605,606,607,608,609,610,611,612,613,614,615,616,617,618,619,620,621,622,623,624,625,626,627,628,629,630,631,632,633,634,635,636,637,638,639,640,641,642,643,644,645,646,647,648,649,650,651,652,653,654,655,656,657,658,659,660,661,662,663,664,665,666,667,668,669,670,671,672,673,674,675,676,677,678,679,680,681,682,683,684,685,686,687,688,689,690,691,692,693,694,695,696,697,698,699,700],"tree_info":[0,0,0,0,0,0,0,0,0,0,0,0,0,0,0,0,0,0,0,0,0,0,0,0,0,0,0,0,0,0,0,0,0,0,0,0,0,0,0,0,0,0,0,0,0,0,0,0,0,0,0,0,0,0,0,0,0,0,0,0,0,0,0,0,0,0,0,0,0,0,0,0,0,0,0,0,0,0,0,0,0,0,0,0,0,0,0,0,0,0,0,0,0,0,0,0,0,0,0,0,0,0,0,0,0,0,0,0,0,0,0,0,0,0,0,0,0,0,0,0,0,0,0,0,0,0,0,0,0,0,0,0,0,0,0,0,0,0,0,0,0,0,0,0,0,0,0,0,0,0,0,0,0,0,0,0,0,0,0,0,0,0,0,0,0,0,0,0,0,0,0,0,0,0,0,0,0,0,0,0,0,0,0,0,0,0,0,0,0,0,0,0,0,0,0,0,0,0,0,0,0,0,0,0,0,0,0,0,0,0,0,0,0,0,0,0,0,0,0,0,0,0,0,0,0,0,0,0,0,0,0,0,0,0,0,0,0,0,0,0,0,0,0,0,0,0,0,0,0,0,0,0,0,0,0,0,0,0,0,0,0,0,0,0,0,0,0,0,0,0,0,0,0,0,0,0,0,0,0,0,0,0,0,0,0,0,0,0,0,0,0,0,0,0,0,0,0,0,0,0,0,0,0,0,0,0,0,0,0,0,0,0,0,0,0,0,0,0,0,0,0,0,0,0,0,0,0,0,0,0,0,0,0,0,0,0,0,0,0,0,0,0,0,0,0,0,0,0,0,0,0,0,0,0,0,0,0,0,0,0,0,0,0,0,0,0,0,0,0,0,0,0,0,0,0,0,0,0,0,0,0,0,0,0,0,0,0,0,0,0,0,0,0,0,0,0,0,0,0,0,0,0,0,0,0,0,0,0,0,0,0,0,0,0,0,0,0,0,0,0,0,0,0,0,0,0,0,0,0,0,0,0,0,0,0,0,0,0,0,0,0,0,0,0,0,0,0,0,0,0,0,0,0,0,0,0,0,0,0,0,0,0,0,0,0,0,0,0,0,0,0,0,0,0,0,0,0,0,0,0,0,0,0,0,0,0,0,0,0,0,0,0,0,0,0,0,0,0,0,0,0,0,0,0,0,0,0,0,0,0,0,0,0,0,0,0,0,0,0,0,0,0,0,0,0,0,0,0,0,0,0,0,0,0,0,0,0,0,0,0,0,0,0,0,0,0,0,0,0,0,0,0,0,0,0,0,0,0,0,0,0,0,0,0,0,0,0,0,0,0,0,0,0,0,0,0,0,0,0,0,0,0,0,0,0,0,0,0,0,0,0,0,0,0,0,0,0,0,0,0,0,0,0,0,0,0,0,0,0,0,0,0,0,0,0,0,0,0,0,0,0,0,0,0,0,0,0,0,0,0,0,0,0,0,0,0,0,0,0,0,0,0,0,0,0,0,0,0,0,0,0,0,0,0,0,0,0,0,0,0,0,0,0,0,0,0,0,0,0,0,0,0,0,0,0,0,0,0,0,0,0,0,0,0,0,0,0,0,0,0,0,0,0,0,0,0,0,0,0,0],"trees":[{"base_weights":[3.861438E-2,7.410657E-1,-9.878694E-1,1.0477937E0,-1.9116751E0,-1.5922682E0,4.6701872E-1,8.389393E-1,4.4350743E-2,-2.2311893E0,-2.1614017E-2,-2.0916736E0,2.5356114E-1,9.0123415E-1,-6.701978E-2,6.6020197E-1,4.3994546E-2,-4.3948825E-2,-6.712325E-2,-1.1024865E0,-2.2155495E0,-1.9733094E-1,7.763602E-1,1.9751343E-1,1.13375E0,1.9399378E-2,-2.3742886E-2,-1.03577105E-2,-6.687704E-2,-6.2177416E-2,-3.3329383E-2,-3.9813425E-2,1.31675545E-2,-2.3255434E-3,3.315483E-2,3.307886E-2,-1.03577105E-2,1.784173E-2,3.9407864E-2],"categories":[],"categories_nodes":[],"categories_segments":[],"categories_sizes":[],"default_left":[0,0,0,0,0,0,0,0,0,0,0,0,0,0,0,0,0,0,0,0,0,0,0,0,0,0,0,0,0,0,0,0,0,0,0,0,0,0,0],"id":0,"left_children":[1,3,5,7,9,11,13,15,-1,17,-1,19,21,23,-1,25,-1,-1,-1,27,29,31,33,35,37,-1,-1,-1,-1,-1,-1,-1,-1,-1,-1,-1,-1,-1,-1],"loss_changes":[3.3947415E2,2.2747649E2,1.682166E2,3.0570038E1,1.0297615E1,1.2459094E2,7.1586586E1,2.573703E1,0E0,3.227974E0,0E0,1.2984741E1,6.791236E0,8.00206E0,0E0,1.2430939E1,0E0,0E0,0E0,1.1625175E1,6.7757874E0,1.3400966E1,5.107421E0,7.1984353E0,5.538254E0,0E0,0E0,0E0,0E0,0E0,0E0,0E0,0E0,0E0,0E0,0E0,0E0,0E0,0E0],"parents":[2147483647,0,0,1,1,2,2,3,3,4,4,5,5,6,6,7,7,9,9,11,11,12,12,13,13,15,15,19,19,20,20,21,21,22,22,23,23,24,24],"right_children":[2,4,6,8,10,12,14,16,-1,18,-1,20,22,24,-1,26,-1,-1,-1,28,30,32,34,36,38,-1,-1,-1,-1,-1,-1,-1,-1,-1,-1,-1,-1,-1,-1],"split_conditions":[5.0366106E0,2.3789999E1,1E0,1E0,1E0,1E0,2.2987888E1,1E0,4.4350743E-2,1.849864E2,-2.1614017E-2,1.6998568E1,7.767483E0,7.6E1,-6.701978E-2,4.903379E0,4.3994546E-2,-4.3948825E-2,-6.712325E-2,2.7280402E2,1.16E2,2.3667514E2,3.045658E0,9.562083E1,2.765721E1,1.9399378E-2,-2.3742886E-2,-1.03577105E-2,-6.687704E-2,-6.2177416E-2,-3.3329383E-2,-3.9813425E-2,1.31675545E-2,-2.3255434E-3,3.315483E-2,3.307886E-2,-1.03577105E-2,1.784173E-2,3.9407864E-2],"split_indices":[13,12,14,14,14,15,12,15,0,8,0,1,13,7,0,13,0,0,0,11,7,11,4,9,1,0,0,0,0,0,0,0,0,0,0,0,0,0,0],"split_type":[0,0,0,0,0,0,0,0,0,0,0,0,0,0,0,0,0,0,0,0,0,0,0,0,0,0,0,0,0,0,0,0,0,0,0,0,0,0,0],"sum_hessian":[4.707614E2,2.7949847E2,1.9126292E2,2.505414E2,2.8957077E1,1.3512608E2,5.613685E1,1.846378E2,6.59036E1,2.2496569E1,6.4605074E0,1.0634957E2,2.877651E1,4.891198E1,7.2248683E0,1.5026196E2,3.4375835E1,6.36103E0,1.613554E1,1.1858222E1,9.4491356E1,1.5457584E1,1.3318925E1,1.2156654E1,3.6755325E1,1.4517575E2,5.08621E0,7.7641296E0,4.094092E0,8.796017E1,6.5311832E0,5.397714E0,1.005987E1,4.533876E0,8.785049E0,4.3925247E0,7.7641296E0,1.4693223E1,2.2062101E1],"tree_param":{"num_deleted":"0","num_feature":"17","num_nodes":"39","size_leaf_vector":"1"}},{"base_weights":[-1.5178128E-2,7.211377E-1,-1.0214841E0,1.0276719E0,-1.9084312E0,-1.2853947E0,1.4606541E-1,9.272715E-1,4.327387E-2,-6.49743E-2,-1.2481691E0,-1.1212256E0,-1.9031485E0,5.950621E-1,-6.6252254E-2,1.1458107E0,8.07588E-1,-8.330701E-3,-6.452179E-2,-9.94975E-1,-5.9386857E-2,-1.1833287E0,-5.8838148E-2,9.3246716E-1,-1.986968E-2,3.318522E-2,7.7500497E-3,1.9185297E-2,3.3954896E-2,-5.830121E-2,-2.3848929E-2,-4.927069E-2,-1.224536E-2,1.142309E-2,3.6992975E-2],"categories":[],"categories_nodes":[],"categories_segments":[],"categories_sizes":[],"default_left":[0,0,0,0,0,0,0,0,0,0,0,0,0,0,0,0,0,0,0,0,0,0,0,0,0,0,0,0,0,0,0,0,0,0,0],"id":1,"left_children":[1,3,5,7,9,11,13,15,-1,-1,17,19,21,23,-1,25,27,-1,-1,29,-1,31,-1,33,-1,-1,-1,-1,-1,-1,-1,-1,-1,-1,-1],"loss_changes":[3.4244797E2,2.1516486E2,6.0175644E1,1.3534119E1,8.831139E0,1.6110443E1,4.1833008E1,5.2915955E0,0E0,0E0,1.2524643E1,1.6878143E1,6.2641144E0,1.3756255E1,0E0,4.669426E0,5.8681946E0,0E0,0E0,1.5139526E1,0E0,4.1278486E0,0E0,5.369644E0,0E0,0E0,0E0,0E0,0E0,0E0,0E0,0E0,0E0,0E0,0E0],"parents":[2147483647,0,0,1,1,2,2,3,3,4,4,5,5,6,6,7,7,10,10,11,11,12,12,13,13,15,15,16,16,19,19,21,21,23,23],"right_children":[2,4,6,8,10,12,14,16,-1,-1,18,20,22,24,-1,26,28,-1,-1,30,-1,32,-1,34,-1,-1,-1,-1,-1,-1,-1,-1,-1,-1,-1],"split_conditions":[4.9736476E0,2.3789999E1,1E0,1E0,2.5975772E2,2.2835552E1,2.3656693E1,1.19E2,4.327387E-2,-6.49743E-2,2.1851584E2,1.8168352E2,2.7966394E0,1.53E2,-6.6252254E-2,8.818368E0,3.6563427E1,-8.330701E-3,-6.452179E-2,6.8E1,-5.9386857E-2,1.4246461E2,-5.8838148E-2,7.767483E0,-1.986968E-2,3.318522E-2,7.7500497E-3,1.9185297E-2,3.3954896E-2,-5.830121E-2,-2.3848929E-2,-4.927069E-2,-1.224536E-2,1.142309E-2,3.6992975E-2],"split_indices":[13,12,15,15,11,12,12,6,0,0,8,9,3,6,0,3,1,0,0,7,0,9,0,13,0,0,0,0,0,0,0,0,0,0,0],"split_type":[0,0,0,0,0,0,0,0,0,0,0,0,0,0,0,0,0,0,0,0,0,0,0,0,0,0,0,0,0,0,0,0,0,0,0],"sum_hessian":[4.6212827E2,2.6686697E2,1.9526129E2,2.3901663E2,2.785034E1,1.5926036E2,3.6000927E1,2.030072E2,3.6009434E1,1.6051043E1,1.1799297E1,1.2586776E2,3.339261E1,3.0685978E1,5.314951E0,7.1774796E1,1.312324E2,6.4421067E0,5.3571906E0,1.1255997E2,1.3307788E1,8.955674E0,2.4436935E1,2.4468061E1,6.2179165E0,6.596418E1,5.8106174E0,1.0679722E2,2.4435186E1,1.0363923E1,1.02196045E2,4.7980328E0,4.1576414E0,1.1175957E1,1.3292105E1],"tree_param":{"num_deleted":"0","num_feature":"17","num_nodes":"35","size_leaf_vector":"1"}},{"base_weights":[3.3088744E-2,7.3693913E-1,-9.13587E-1,1.0226463E0,-1.7230676E0,-1.5839753E0,5.9428E-1,4.2220276E-2,-1.16166614E-1,-8.8310564E-1,-5.8479946E-2,-1.9894649E0,7.1273446E-2,9.63834E-1,-5.2851584E-2,-8.6941427E-1,4.3085046E-2,-6.5396116E-3,-4.5540553E-2,-2.1148772E0,-1.0605422E0,9.611572E-1,-1.5899007E0,4.2963922E-2,2.0884603E-2,-5.9720356E-2,4.1060556E-2,-2.5997149E-2,-5.954486E-2,-5.0053235E-2,-1.1006507E-2,3.4306232E-2,1.5926979E-3,-1.4622843E-2,-6.609102E-2,-4.465688E-2,4.4983216E-2],"categories":[],"categories_nodes":[],"categories_segments":[],"categories_sizes":[],"default_left":[0,0,0,0,0,0,0,0,0,0,0,0,0,0,0,0,0,0,0,0,0,0,0,0,0,0,0,0,0,0,0,0,0,0,0,0,0],"id":2,"left_children":[1,3,5,7,9,11,13,-1,15,17,-1,19,21,23,-1,25,-1,-1,-1,27,29,31,33,-1,35,-1,-1,-1,-1,-1,-1,-1,-1,-1,-1,-1,-1],"loss_changes":[3.0174924E2,1.825932E2,1.952338E2,1.4084866E2,9.714867E0,8.9733E1,5.5834076E1,0E0,9.498684E1,4.6699386E0,0E0,1.2464691E1,3.8946426E1,3.0231152E1,0E0,1.625423E2,0E0,0E0,0E0,8.379272E0,6.551073E0,4.6682634E0,8.119724E0,0E0,5.6022747E1,0E0,0E0,0E0,0E0,0E0,0E0,0E0,0E0,0E0,0E0,0E0,0E0],"parents":[2147483647,0,0,1,1,2,2,3,3,4,4,5,5,6,6,8,8,9,9,11,11,12,12,13,13,15,15,19,19,20,20,21,21,22,22,24,24],"right_children":[2,4,6,8,10,12,14,-1,16,18,-1,20,22,24,-1,26,-1,-1,-1,28,30,32,34,-1,36,-1,-1,-1,-1,-1,-1,-1,-1,-1,-1,-1,-1],"split_conditions":[4.9736476E0,2.4026705E1,1E0,5.1228065E0,1.903221E2,1E0,2.3215715E1,4.2220276E-2,1E0,9.013919E0,-5.8479946E-2,2.6767176E1,5.3217096E0,5.0020733E0,-5.2851584E-2,1E0,4.3085046E-2,-6.5396116E-3,-4.5540553E-2,5.667001E-1,7.1608143E0,2.2835552E1,9.851604E1,4.2963922E-2,1E0,-5.9720356E-2,4.1060556E-2,-2.5997149E-2,-5.954486E-2,-5.0053235E-2,-1.1006507E-2,3.4306232E-2,1.5926979E-3,-1.4622843E-2,-6.609102E-2,-4.465688E-2,4.4983216E-2],"split_indices":[13,12,14,16,8,15,12,0,14,2,0,12,16,16,0,15,0,0,0,4,5,12,9,0,15,0,0,0,0,0,0,0,0,0,0,0,0],"split_type":[0,0,0,0,0,0,0,0,0,0,0,0,0,0,0,0,0,0,0,0,0,0,0,0,0,0,0,0,0,0,0,0,0,0,0,0,0],"sum_hessian":[4.5281998E2,2.59722E2,1.9309799E2,2.3270703E2,2.7014961E1,1.336687E2,5.942929E1,1.5866087E2,7.404615E1,9.160941E0,1.785402E1,1.0736355E2,2.6305147E1,5.1891052E1,7.538238E0,5.133696E1,2.2709192E1,5.0761566E0,4.0847845E0,9.456999E1,1.279356E1,1.713469E1,9.170457E0,3.1346281E1,2.0544773E1,3.294865E1,1.8388308E1,5.905387E0,8.8664604E1,5.817326E0,6.9762344E0,1.2836808E1,4.2978816E0,4.094527E0,5.0759296E0,1.0179689E1,1.0365084E1],"tree_param":{"num_deleted":"0","num_feature":"17","num_nodes":"37","size_leaf_vector":"1"}},{"base_weights":[2.6710179E-2,6.9615614E-1,-8.9949214E-1,9.6119153E-1,-1.5985872E0,-1.5048332E0,5.611731E-1,4.189095E-2,-1.6367535E-1,-2.0112176E0,-9.403158E-3,-1.8829075E0,-3.7226893E-2,1.3149937E0,-5.564644E-1,-1.0165236E0,4.2585246E-2,-2.6315618E-2,-6.1199598E-2,-1.5458677E0,-2.141427E0,1.0485004E0,-1.5309025E0,4.4740435E-2,-2.837107E-2,-1.3637478E0,3.6845706E-2,-5.875882E-2,4.1765366E-2,-1.6367873E-3,-4.6530318E-2,-6.036207E-2,-2.6122598E-2,4.2335615E-2,-1.3399907E-2,-5.6211777E-2,-1.3359002E-2,-2.2416253E-2,-6.314968E-2],"categories":[],"categories_nodes":[],"categories_segments":[],"categories_sizes":[],"default_left":[0,0,0,0,0,0,0,0,0,0,0,0,0,0,0,0,0,0,0,0,0,0,0,0,0,0,0,0,0,0,0,0,0,0,0,0,0,0,0],"id":3,"left_children":[1,3,5,7,9,11,13,-1,15,17,-1,19,21,23,25,27,-1,-1,-1,29,31,33,35,-1,-1,37,-1,-1,-1,-1,-1,-1,-1,-1,-1,-1,-1,-1,-1],"loss_changes":[2.9234006E2,1.6647691E2,1.7491985E2,1.6028719E2,1.4634018E1,7.759985E1,4.8856834E1,0E0,1.2340222E2,5.321739E0,0E0,9.622681E0,4.652596E1,2.7145004E1,3.6116104E1,1.6398749E2,0E0,0E0,0E0,1.1981567E1,5.923401E0,1.3073906E1,6.7328854E0,0E0,0E0,8.468874E0,0E0,0E0,0E0,0E0,0E0,0E0,0E0,0E0,0E0,0E0,0E0,0E0,0E0],"parents":[2147483647,0,0,1,1,2,2,3,3,4,4,5,5,6,6,8,8,9,9,11,11,12,12,13,13,14,14,15,15,19,19,20,20,21,21,22,22,25,25],"right_children":[2,4,6,8,10,12,14,-1,16,18,-1,20,22,24,26,28,-1,-1,-1,30,32,34,36,-1,-1,38,-1,-1,-1,-1,-1,-1,-1,-1,-1,-1,-1,-1,-1],"split_conditions":[4.9736476E0,2.4026705E1,1E0,5.1228065E0,8.369826E0,1E0,5.0020733E0,4.189095E-2,1E0,1.3546327E0,-9.403158E-3,7.2E1,5.026306E0,2.2492262E1,1E0,1E0,4.2585246E-2,-2.6315618E-2,-6.1199598E-2,2.6227854E1,2.8457718E1,2.1455442E1,8.575908E0,4.4740435E-2,-2.837107E-2,5.547967E0,3.6845706E-2,-5.875882E-2,4.1765366E-2,-1.6367873E-3,-4.6530318E-2,-6.036207E-2,-2.6122598E-2,4.2335615E-2,-1.3399907E-2,-5.6211777E-2,-1.3359002E-2,-2.2416253E-2,-6.314968E-2],"split_indices":[13,12,14,16,4,15,16,0,14,16,0,0,16,12,15,15,0,0,0,10,12,12,13,0,0,4,0,0,0,0,0,0,0,0,0,0,0,0,0],"split_type":[0,0,0,0,0,0,0,0,0,0,0,0,0,0,0,0,0,0,0,0,0,0,0,0,0,0,0,0,0,0,0,0,0,0,0,0,0,0,0],"sum_hessian":[4.7144336E2,2.7365466E2,1.977887E2,2.4533142E2,2.8323233E1,1.3983606E2,5.795264E1,1.6179222E2,8.353921E1,2.1295204E1,7.0280285E0,1.111871E2,2.864895E1,3.460727E1,2.3345375E1,5.5973022E1,2.7566185E1,4.0235267E0,1.7271679E1,4.832522E1,6.2861885E1,1.6593468E1,1.2055482E1,3.0345238E1,4.26203E0,1.6420628E1,6.9247484E0,3.8634724E1,1.7338299E1,4.8821807E0,4.344304E1,5.8834026E1,4.0278597E0,1.2469778E1,4.1236897E0,7.92907E0,4.1264124E0,1.0545632E1,5.874994E0],"tree_param":{"num_deleted":"0","num_feature":"17","num_nodes":"39","size_leaf_vector":"1"}},{"base_weights":[2.3526999E-3,6.7203134E-1,-9.445576E-1,9.5561576E-1,-1.742628E0,-1.4993324E0,4.9816176E-1,4.1244015E-2,1.4567617E-2,-1.327164E0,-5.989519E-2,-1.9348422E0,9.7777486E-2,1.333668E0,-6.196339E-1,-8.637258E-1,4.0758874E-2,-5.9851047E-2,-2.027272E-2,-7.587565E-1,-2.0375662E0,9.6754056E-1,-1.766504E0,4.193436E-2,6.544965E-3,-1.5911655E0,3.6623247E-2,-5.224768E-2,3.778349E-2,-4.6267115E-2,8.130138E-3,-5.6578357E-2,-3.4439333E-2,4.1051377E-2,-2.9364184E-2,-6.309353E-2,-2.9486198E-2,-2.3775937E-2,-5.4764275E-2],"categories":[],"categories_nodes":[],"categories_segments":[],"categories_sizes":[],"default_left":[0,0,0,0,0,0,0,0,0,0,0,0,0,0,0,0,0,0,0,0,0,0,0,0,0,0,0,0,0,0,0,0,0,0,0,0,0,0,0],"id":4,"left_children":[1,3,5,7,9,11,13,-1,15,17,-1,19,21,23,25,27,-1,-1,-1,29,31,33,35,-1,-1,37,-1,-1,-1,-1,-1,-1,-1,-1,-1,-1,-1,-1,-1],"loss_changes":[2.9199426E2,1.8472504E2,1.5268895E2,1.27777695E2,5.383667E0,9.583591E1,4.9508568E1,0E0,1.1789361E2,7.5893497E0,0E0,1.3047638E1,4.793236E1,6.9491043E0,4.3402363E1,1.3567532E2,0E0,0E0,0E0,8.730425E0,3.3960571E0,2.2472261E1,3.509924E0,0E0,0E0,4.583721E0,0E0,0E0,0E0,0E0,0E0,0E0,0E0,0E0,0E0,0E0,0E0,0E0,0E0],"parents":[2147483647,0,0,1,1,2,2,3,3,4,4,5,5,6,6,8,8,9,9,11,11,12,12,13,13,14,14,15,15,19,19,20,20,21,21,22,22,25,25],"right_children":[2,4,6,8,10,12,14,-1,16,18,-1,20,22,24,26,28,-1,-1,-1,30,32,34,36,-1,-1,38,-1,-1,-1,-1,-1,-1,-1,-1,-1,-1,-1,-1,-1],"split_conditions":[5.0020733E0,2.4026705E1,1E0,4.9537835E0,2.1765153E0,1E0,5.021272E0,4.1244015E-2,1E0,2.6331224E1,-5.989519E-2,1.6998568E1,5.021272E0,2.1314457E1,1E0,1E0,4.0758874E-2,-5.9851047E-2,-2.027272E-2,2.3139476E2,1.77E2,2.200686E1,7.8896255E1,4.193436E-2,6.544965E-3,7.1E1,3.6623247E-2,-5.224768E-2,3.778349E-2,-4.6267115E-2,8.130138E-3,-5.6578357E-2,-3.4439333E-2,4.1051377E-2,-2.9364184E-2,-6.309353E-2,-2.9486198E-2,-2.3775937E-2,-5.4764275E-2],"split_indices":[16,12,14,13,16,15,13,0,14,12,0,1,13,12,15,15,0,0,0,11,6,12,10,0,0,0,0,0,0,0,0,0,0,0,0,0,0,0,0],"split_type":[0,0,0,0,0,0,0,0,0,0,0,0,0,0,0,0,0,0,0,0,0,0,0,0,0,0,0,0,0,0,0,0,0,0,0,0,0,0,0],"sum_hessian":[4.6042715E2,2.6969675E2,1.9073041E2,2.4136264E2,2.8334095E1,1.3775725E2,5.2973156E1,1.5105544E2,9.030722E1,1.4960123E1,1.3373972E1,1.0823797E2,2.9519276E1,3.0312159E1,2.2660995E1,5.67609E1,3.3546318E1,5.943284E0,9.016839E0,8.708135E0,9.952984E1,2.0135141E1,9.384133E0,2.5421309E1,4.8908515E0,1.5173201E1,7.487795E0,3.861683E1,1.8144068E1,4.594892E0,4.113243E0,9.400035E1,5.529484E0,1.5917125E1,4.218016E0,5.140398E0,4.243736E0,5.6716723E0,9.501528E0],"tree_param":{"num_deleted":"0","num_feature":"17","num_nodes":"39","size_leaf_vector":"1"}},{"base_weights":[6.018339E-2,6.983166E-1,-9.1670614E-1,9.5440304E-1,-1.5258458E0,-1.4433911E0,4.8884544E-1,4.0599268E-2,1.6781075E-2,-1.8151821E0,-8.144301E-3,-1.9128598E0,1.8223034E-1,1.3656312E0,-6.076297E-1,-8.175342E-1,4.0971003E-2,-5.823686E-2,-2.7567279E-2,-2.002823E0,-1.2360757E-2,1.0697932E0,-1.3333722E0,4.2358093E-2,5.3379964E-3,-1.692869E0,3.957282E-2,-4.9405262E-2,4.0422145E-2,-5.562005E-2,-3.3823423E-2,4.203515E-2,-1.51968775E-2,-5.0600942E-2,-1.1667108E-2,-6.095289E-2,-3.4485083E-2],"categories":[],"categories_nodes":[],"categories_segments":[],"categories_sizes":[],"default_left":[0,0,0,0,0,0,0,0,0,0,0,0,0,0,0,0,0,0,0,0,0,0,0,0,0,0,0,0,0,0,0,0,0,0,0,0,0],"id":5,"left_children":[1,3,5,7,9,11,13,-1,15,17,-1,19,21,23,25,27,-1,-1,-1,29,-1,31,33,-1,-1,35,-1,-1,-1,-1,-1,-1,-1,-1,-1,-1,-1],"loss_changes":[2.9493845E2,1.6303148E2,1.3840475E2,1.2994296E2,1.0473839E1,1.03792755E2,4.901951E1,0E0,1.16747444E2,6.2417374E0,0E0,1.3821136E1,4.1045753E1,6.403183E0,5.081824E1,1.3891138E2,0E0,0E0,0E0,3.2980042E0,0E0,1.4984684E1,5.374895E0,0E0,0E0,3.40905E0,0E0,0E0,0E0,0E0,0E0,0E0,0E0,0E0,0E0,0E0,0E0],"parents":[2147483647,0,0,1,1,2,2,3,3,4,4,5,5,6,6,8,8,9,9,11,11,12,12,13,13,14,14,15,15,19,19,21,21,22,22,25,25],"right_children":[2,4,6,8,10,12,14,-1,16,18,-1,20,22,24,26,28,-1,-1,-1,30,-1,32,34,-1,-1,36,-1,-1,-1,-1,-1,-1,-1,-1,-1,-1,-1],"split_conditions":[5.061077E0,2.3789999E1,1E0,4.9736476E0,3.4797668E2,1E0,5.021272E0,4.0599268E-2,1E0,8.180505E0,-8.144301E-3,2.8656517E1,4.9736476E0,2.2357853E1,1E0,1E0,4.0971003E-2,-5.823686E-2,-2.7567279E-2,9.334937E0,-1.2360757E-2,2.1720917E1,8.43804E0,4.2358093E-2,5.3379964E-3,1.38E2,3.957282E-2,-4.9405262E-2,4.0422145E-2,-5.562005E-2,-3.3823423E-2,4.203515E-2,-1.51968775E-2,-5.0600942E-2,-1.1667108E-2,-6.095289E-2,-3.4485083E-2],"split_indices":[16,12,14,13,11,15,13,0,14,5,0,12,13,12,15,15,0,0,0,4,0,12,13,0,0,6,0,0,0,0,0,0,0,0,0,0,0],"split_type":[0,0,0,0,0,0,0,0,0,0,0,0,0,0,0,0,0,0,0,0,0,0,0,0,0,0,0,0,0,0,0,0,0,0,0,0,0],"sum_hessian":[4.7308264E2,2.8616013E2,1.869225E2,2.5662436E2,2.9535774E1,1.3597118E2,5.095134E1,1.6283273E2,9.3791626E1,2.3888632E1,5.647143E0,1.05499916E2,3.0471252E1,2.8309198E1,2.2642141E1,6.014979E1,3.3641834E1,1.6914541E1,6.9740887E0,9.936095E1,6.138973E0,1.9221035E1,1.1250218E1,2.428319E1,4.026007E0,1.4842586E1,7.799556E0,4.1942673E1,1.820712E1,9.382044E1,5.5405006E0,1.48654175E1,4.355617E0,7.082493E0,4.1677256E0,6.4145346E0,8.42805E0],"tree_param":{"num_deleted":"0","num_feature":"17","num_nodes":"37","size_leaf_vector":"1"}},{"base_weights":[-2.0187136E-2,5.4669553E-1,-8.515196E-1,3.2787606E-1,1.1232604E0,-1.3493923E0,5.0993836E-1,1.8009703E-1,3.0050289E-2,1.0505301E-2,3.2355294E-2,-1.802984E0,1.15318246E-1,2.2448605E-1,4.248042E-2,-3.0014249E-2,2.2037666E-1,-9.215857E-1,-1.8799323E0,3.682103E-2,-9.1835976E-2,4.2182744E-1,-2.12905E-2,3.0348587E-3,1.7436333E-2,-8.238079E-3,-4.2101678E-2,-3.166963E-2,-5.282612E-2,-2.8702723E-2,8.554859E-3,-1.9341366E-3,2.326711E-2],"categories":[],"categories_nodes":[],"categories_segments":[],"categories_sizes":[],"default_left":[0,0,0,0,0,0,0,0,0,0,0,0,0,0,0,0,0,0,0,0,0,0,0,0,0,0,0,0,0,0,0,0,0],"id":6,"left_children":[1,3,5,7,9,11,13,15,-1,-1,-1,17,19,21,-1,-1,23,25,27,-1,29,31,-1,-1,-1,-1,-1,-1,-1,-1,-1,-1,-1],"loss_changes":[2.1617534E2,3.4401703E1,1.26074554E2,2.27363E1,3.731514E0,9.0481384E1,1.497596E1,8.606501E0,0E0,0E0,0E0,7.0173035E0,8.279021E0,7.8093657E0,0E0,0E0,7.3792305E0,3.2486873E0,4.360565E0,0E0,1.0846412E1,7.0317907E0,0E0,0E0,0E0,0E0,0E0,0E0,0E0,0E0,0E0,0E0,0E0],"parents":[2147483647,0,0,1,1,2,2,3,3,4,4,5,5,6,6,7,7,11,11,12,12,13,13,16,16,17,17,18,18,20,20,21,21],"right_children":[2,4,6,8,10,12,14,16,-1,-1,-1,18,20,22,-1,-1,24,26,28,-1,30,32,-1,-1,-1,-1,-1,-1,-1,-1,-1,-1,-1],"split_conditions":[5.061077E0,1E0,1E0,1E0,6.7E1,1E0,1E0,6.0951977E1,3.0050289E-2,1.0505301E-2,3.2355294E-2,1.6998568E1,4.5033884E0,8.5629635E0,4.248042E-2,-3.0014249E-2,2.744978E2,4.9629855E0,9.580908E-1,3.682103E-2,6.479319E0,2.1269504E2,-2.12905E-2,3.0348587E-3,1.7436333E-2,-8.238079E-3,-4.2101678E-2,-3.166963E-2,-5.282612E-2,-2.8702723E-2,8.554859E-3,-1.9341366E-3,2.326711E-2],"split_indices":[16,14,14,15,7,15,15,11,0,0,0,1,5,5,0,0,8,3,2,0,5,11,0,0,0,0,0,0,0,0,0,0,0],"split_type":[0,0,0,0,0,0,0,0,0,0,0,0,0,0,0,0,0,0,0,0,0,0,0,0,0,0,0,0,0,0,0,0,0],"sum_hessian":[4.5866986E2,2.7271405E2,1.8595583E2,1.9771025E2,7.500381E1,1.3616258E2,4.9793232E1,1.6617934E2,3.1530914E1,6.32438E0,6.867943E1,1.0396273E2,3.2199856E1,3.9198727E1,1.0594505E1,5.034949E0,1.6114438E2,8.368531E0,9.55942E1,4.59319E0,2.7606667E1,3.2791706E1,6.407019E0,1.281309E2,3.301347E1,4.232162E0,4.136369E0,7.9527493E0,8.764145E1,8.177976E0,1.942869E1,1.5371246E1,1.742046E1],"tree_param":{"num_deleted":"0","num_feature":"17","num_nodes":"33","size_leaf_vector":"1"}},{"base_weights":[-1.0592231E-3,6.467549E-1,-8.7909025E-1,9.2694753E-1,-1.4906814E0,-1.1603475E0,3.5429373E-1,4.0704545E-2,-1.0442728E-1,-5.285451E-2,-6.361715E-1,-8.9980096E-1,-1.6343871E0,1.0042332E0,-6.805655E-1,-6.2441546E-1,3.8875706E-2,6.103503E-3,-4.245809E-2,-7.399058E-1,-1.5581917E0,-2.764486E-3,-1.7507646E0,3.4611676E-2,-1.7067464E-3,3.6310703E-2,-6.050056E-2,-3.0883059E-2,-3.3763316E-3,-3.6492344E-2,-1.2925577E-2,-5.230683E-2,-2.1621056E-3,-5.0938975E-2,-2.544521E-2,-2.862419E-2,2.4266262E-2],"categories":[],"categories_nodes":[],"categories_segments":[],"categories_sizes":[],"default_left":[0,0,0,0,0,0,0,0,0,0,0,0,0,0,0,0,0,0,0,0,0,0,0,0,0,0,0,0,0,0,0,0,0,0,0,0,0],"id":7,"left_children":[1,3,5,7,9,11,13,-1,15,-1,17,19,21,23,25,27,-1,-1,-1,29,31,-1,33,-1,-1,35,-1,-1,-1,-1,-1,-1,-1,-1,-1,-1,-1],"loss_changes":[2.6324973E2,1.5952652E2,6.817145E1,1.3875488E2,1.1973862E1,1.9733093E1,2.4565435E1,0E0,6.704937E1,0E0,8.585884E0,1.0851677E1,1.01147E1,6.458273E0,1.5625274E1,1.6071898E1,0E0,0E0,0E0,1.3238594E1,1.0945168E1,0E0,5.297104E0,0E0,0E0,9.03117E0,0E0,0E0,0E0,0E0,0E0,0E0,0E0,0E0,0E0,0E0,0E0],"parents":[2147483647,0,0,1,1,2,2,3,3,4,4,5,5,6,6,8,8,10,10,11,11,12,12,13,13,14,14,15,15,19,19,20,20,22,22,25,25],"right_children":[2,4,6,8,10,12,14,-1,16,-1,18,20,22,24,26,28,-1,-1,-1,30,32,-1,34,-1,-1,36,-1,-1,-1,-1,-1,-1,-1,-1,-1,-1,-1],"split_conditions":[4.9736476E0,2.4026705E1,1E0,5.026306E0,7.1642475E0,6.411932E0,5.3217096E0,4.0704545E-2,1E0,-5.285451E-2,2.1851584E2,2.2835552E1,5.9305286E-1,2.1455442E1,4.899251E0,2.6361557E2,3.8875706E-2,6.103503E-3,-4.245809E-2,2.4950535E1,5.711959E0,-2.764486E-3,8.640588E0,3.4611676E-2,-1.7067464E-3,3.8047328E0,-6.050056E-2,-3.0883059E-2,-3.3763316E-3,-3.6492344E-2,-1.2925577E-2,-5.230683E-2,-2.1621056E-3,-5.0938975E-2,-2.544521E-2,-2.862419E-2,2.4266262E-2],"split_indices":[13,12,15,16,4,16,16,0,15,0,8,12,3,12,4,11,0,0,0,1,16,0,3,0,0,3,0,0,0,0,0,0,0,0,0,0,0],"split_type":[0,0,0,0,0,0,0,0,0,0,0,0,0,0,0,0,0,0,0,0,0,0,0,0,0,0,0,0,0,0,0,0,0,0,0,0,0],"sum_hessian":[4.6277478E2,2.663018E2,1.96473E2,2.354487E2,3.085308E1,1.5999045E2,3.648255E1,1.5151022E2,8.393848E1,2.0118822E1,1.0734259E1,1.03282104E2,5.670835E1,2.240916E1,1.4073391E1,6.2711914E1,2.1226559E1,5.572703E0,5.1615553E0,8.313507E1,2.0147032E1,4.0048227E0,5.270353E1,1.7883812E1,4.525348E0,9.629196E0,4.4441953E0,3.096508E1,3.1746834E1,2.5288614E1,5.7846455E1,1.6134562E1,4.012471E0,4.5703453E1,7.0000772E0,4.2362576E0,5.392939E0],"tree_param":{"num_deleted":"0","num_feature":"17","num_nodes":"37","size_leaf_vector":"1"}},{"base_weights":[-4.0238425E-2,5.3766084E-1,-8.845718E-1,8.2246846E-1,-1.7082347E0,-1.35331E0,4.3214303E-1,5.937536E-1,3.9073605E-2,-5.2754007E-2,-1.8163472E-2,-1.7210472E0,3.9587017E-2,7.4555755E-1,-4.587758E-2,4.271737E-1,3.679183E-2,-1.5278319E-2,-1.8051901E0,4.4009647E-1,-5.565122E-2,5.03653E-1,4.1517615E-2,5.037048E-3,2.1194171E-2,-5.2931447E-2,-3.8791638E-2,3.8226698E-2,3.2628838E-3,-1.0653154E-2,2.0055939E-2],"categories":[],"categories_nodes":[],"categories_segments":[],"categories_sizes":[],"default_left":[0,0,0,0,0,0,0,0,0,0,0,0,0,0,0,0,0,0,0,0,0,0,0,0,0,0,0,0,0,0,0],"id":8,"left_children":[1,3,5,7,9,11,13,15,-1,-1,-1,17,19,21,-1,23,-1,-1,25,27,-1,29,-1,-1,-1,-1,-1,-1,-1,-1,-1],"loss_changes":[2.1831497E2,1.6993228E2,1.1221884E2,3.3183975E1,7.2343826E0,6.86788E1,3.176096E1,2.1769142E1,0E0,0E0,0E0,1.0321045E1,2.3454163E1,7.8624916E0,0E0,1.2034681E1,0E0,0E0,5.284607E0,7.2775598E0,0E0,6.691493E0,0E0,0E0,0E0,0E0,0E0,0E0,0E0,0E0,0E0],"parents":[2147483647,0,0,1,1,2,2,3,3,4,4,5,5,6,6,7,7,11,11,12,12,13,13,15,15,18,18,19,19,21,21],"right_children":[2,4,6,8,10,12,14,16,-1,-1,-1,18,20,22,-1,24,-1,-1,26,28,-1,30,-1,-1,-1,-1,-1,-1,-1,-1,-1],"split_conditions":[5.061077E0,2.4026705E1,1E0,1E0,3.5395016E2,1E0,2.3132141E1,1E0,3.9073605E-2,-5.2754007E-2,-1.8163472E-2,6.2091714E-1,2.3656693E1,1E0,-4.587758E-2,6.937747E1,3.679183E-2,-1.5278319E-2,2.214893E1,4.839175E0,-5.565122E-2,2.0372082E1,4.1517615E-2,5.037048E-3,2.1194171E-2,-5.2931447E-2,-3.8791638E-2,3.8226698E-2,3.2628838E-3,-1.0653154E-2,2.0055939E-2],"split_indices":[16,12,14,14,11,15,12,15,0,0,0,4,12,15,0,10,0,0,12,5,0,1,0,0,0,0,0,0,0,0,0],"split_type":[0,0,0,0,0,0,0,0,0,0,0,0,0,0,0,0,0,0,0,0,0,0,0,0,0,0,0,0,0,0,0],"sum_hessian":[4.4738217E2,2.6560065E2,1.8178152E2,2.3572107E2,2.987956E1,1.3405768E2,4.7723843E1,1.7190945E2,6.381162E1,2.4383953E1,5.495607E0,1.0605378E2,2.8003908E1,4.1590725E1,6.133117E0,1.410464E2,3.0863058E1,7.19072E0,9.886306E1,2.3510313E1,4.493596E0,3.1796246E1,9.79448E0,8.37264E1,5.7319992E1,7.1611595E1,2.7251465E1,5.8285546E0,1.7681757E1,6.595724E0,2.5200521E1],"tree_param":{"num_deleted":"0","num_feature":"17","num_nodes":"31","size_leaf_vector":"1"}},{"base_weights":[3.0747734E-2,6.8171394E-1,-7.8951687E-1,9.4385934E-1,-1.5092404E0,-1.3460428E0,5.4027146E-1,3.8704358E-2,4.0752728E-2,-4.7031425E-2,-1.7535385E-2,-1.4350544E0,-5.3345954E-1,1.2118669E0,-5.5453086E-1,-6.4957964E-1,4.028332E-2,-4.0704188E-1,-1.5090282E0,1.3234766E-1,-4.3300226E-2,3.8389552E-2,-9.659561E-3,-1.0542693E0,1.4791277E-2,-3.0849004E-2,-3.2713022E-3,-2.8861707E-2,8.579768E-3,-3.6814246E-2,-4.8368614E-2,-1.2008839E-2,1.9891262E-2,-1.5354403E-2,-4.8870493E-2],"categories":[],"categories_nodes":[],"categories_segments":[],"categories_sizes":[],"default_left":[0,0,0,0,0,0,0,0,0,0,0,0,0,0,0,0,0,0,0,0,0,0,0,0,0,0,0,0,0,0,0,0,0,0,0],"id":9,"left_children":[1,3,5,7,9,11,13,-1,15,-1,-1,17,19,21,23,25,-1,27,29,31,-1,-1,-1,33,-1,-1,-1,-1,-1,-1,-1,-1,-1,-1,-1],"loss_changes":[2.4047487E2,1.442421E2,1.4748468E2,9.7379135E1,5.122463E0,1.0145538E1,4.3250732E1,0E0,7.760361E1,0E0,0E0,9.615051E0,9.818756E0,1.1506283E1,1.229827E1,1.3553444E1,0E0,4.0455923E0,4.884552E0,2.955063E0,0E0,0E0,0E0,5.5824623E0,0E0,0E0,0E0,0E0,0E0,0E0,0E0,0E0,0E0,0E0,0E0],"parents":[2147483647,0,0,1,1,2,2,3,3,4,4,5,5,6,6,8,8,11,11,12,12,13,13,14,14,15,15,17,17,18,18,19,19,23,23],"right_children":[2,4,6,8,10,12,14,-1,16,-1,-1,18,20,22,24,26,-1,28,30,32,-1,-1,-1,34,-1,-1,-1,-1,-1,-1,-1,-1,-1,-1,-1],"split_conditions":[4.9736476E0,2.4026705E1,1E0,5.061077E0,1E0,9.3649734E1,4.5872965E0,3.8704358E-2,1E0,-4.7031425E-2,-1.7535385E-2,6.627993E-1,2.1548071E2,2.2492262E1,8.759409E0,7.907006E0,4.028332E-2,2.0478338E1,6.371884E0,1.01E2,-4.3300226E-2,3.8389552E-2,-9.659561E-3,2.4037639E2,1.4791277E-2,-3.0849004E-2,-3.2713022E-3,-2.8861707E-2,8.579768E-3,-3.6814246E-2,-4.8368614E-2,-1.2008839E-2,1.9891262E-2,-1.5354403E-2,-4.8870493E-2],"split_indices":[13,12,14,16,14,10,16,0,14,0,0,3,8,12,16,16,0,12,16,7,0,0,0,11,0,0,0,0,0,0,0,0,0,0,0],"split_type":[0,0,0,0,0,0,0,0,0,0,0,0,0,0,0,0,0,0,0,0,0,0,0,0,0,0,0,0,0,0,0,0,0,0,0],"sum_hessian":[4.5031683E2,2.5106989E2,1.9924693E2,2.242501E2,2.6819786E1,1.4046225E2,5.878469E1,1.4633348E2,7.7916626E1,2.1321577E1,5.498209E0,1.2658087E2,1.3881372E1,3.643305E1,2.2351645E1,5.269926E1,2.5217365E1,8.505902E0,1.1807497E2,8.538011E0,5.343362E0,3.229015E1,4.142898E0,1.5365369E1,6.9862757E0,2.7459888E1,2.5239374E1,4.456373E0,4.049529E0,7.541279E1,4.2662178E1,4.3642354E0,4.173775E0,9.29522E0,6.070149E0],"tree_param":{"num_deleted":"0","num_feature":"17","num_nodes":"35","size_leaf_vector":"1"}},{"base_weights":[-3.2262832E-3,5.88754E-1,-8.0081224E-1,3.945435E-1,3.2927778E-2,-1.3004754E0,4.9654666E-1,2.6089165E-1,2.7099786E-2,-1.5771583E0,-1.8640575E-1,-9.337413E-3,6.3938934E-1,1.9865997E-2,4.9730656E-1,-7.156564E-1,-1.6693164E0,1.4283828E-1,-3.6639202E-2,2.822617E-1,9.350201E-1,4.9574394E-3,-1.9309603E-2,1.0458557E-2,3.24475E-2,-3.9913747E-2,2.003097E-3,-1.9024236E-2,-4.772301E-2,-9.076534E-3,2.0307904E-2,3.2826737E-2,-7.223835E-3,3.0435419E-2,7.441819E-4],"categories":[],"categories_nodes":[],"categories_segments":[],"categories_sizes":[],"default_left":[0,0,0,0,0,0,0,0,0,0,0,0,0,0,0,0,0,0,0,0,0,0,0,0,0,0,0,0,0,0,0,0,0,0,0],"id":10,"left_children":[1,3,5,7,-1,9,11,13,-1,15,17,-1,19,21,23,25,27,29,-1,31,33,-1,-1,-1,-1,-1,-1,-1,-1,-1,-1,-1,-1,-1,-1],"loss_changes":[2.1006902E2,3.0902283E1,1.2288212E2,1.5687786E1,0E0,4.217578E1,6.331669E0,9.084374E0,0E0,8.678894E0,1.0430411E1,0E0,4.7524414E0,9.384336E0,6.2930756E0,6.3241606E0,8.351471E0,6.1335335E0,0E0,1.0381431E1,4.143692E0,0E0,0E0,0E0,0E0,0E0,0E0,0E0,0E0,0E0,0E0,0E0,0E0,0E0,0E0],"parents":[2147483647,0,0,1,1,2,2,3,3,5,5,6,6,7,7,9,9,10,10,12,12,13,13,14,14,15,15,16,16,17,17,19,19,20,20],"right_children":[2,4,6,8,-1,10,12,14,-1,16,18,-1,20,22,24,26,28,30,-1,32,34,-1,-1,-1,-1,-1,-1,-1,-1,-1,-1,-1,-1,-1,-1],"split_conditions":[4.9736476E0,1E0,1E0,1E0,3.2927778E-2,1E0,1.1837435E2,6.2591198E1,2.7099786E-2,6.3E1,1.3658963E1,-9.337413E-3,1.37E2,1.6960054E2,3.6957516E2,5.280584E0,5.667001E-1,7.938923E0,-3.6639202E-2,1.9842331E2,8.369826E0,4.9574394E-3,-1.9309603E-2,1.0458557E-2,3.24475E-2,-3.9913747E-2,2.003097E-3,-1.9024236E-2,-4.772301E-2,-9.076534E-3,2.0307904E-2,3.2826737E-2,-7.223835E-3,3.0435419E-2,7.441819E-4],"split_indices":[13,14,14,15,0,15,11,10,0,0,2,0,6,9,11,4,4,13,0,8,4,0,0,0,0,0,0,0,0,0,0,0,0,0,0],"split_type":[0,0,0,0,0,0,0,0,0,0,0,0,0,0,0,0,0,0,0,0,0,0,0,0,0,0,0,0,0,0,0,0,0,0,0],"sum_hessian":[4.448748E2,2.5535313E2,1.8952164E2,1.9471376E2,6.063937E1,1.36825E2,5.2696644E1,1.594085E2,3.5305283E1,1.0959764E2,2.7227354E1,7.6527E0,4.504394E1,7.894538E1,8.0463104E1,1.0608238E1,9.89894E1,2.123073E1,5.996624E0,2.041806E1,2.4625881E1,6.458607E1,1.4359316E1,6.932197E1,1.1141134E1,5.4185333E0,5.189705E0,8.196022E0,9.079338E1,1.1874077E1,9.356653E0,7.5830865E0,1.2834974E1,2.044739E1,4.178491E0],"tree_param":{"num_deleted":"0","num_feature":"17","num_nodes":"35","size_leaf_vector":"1"}},{"base_weights":[3.016919E-3,6.018656E-1,-8.052571E-1,8.777679E-1,-1.6073724E0,-1.2019309E0,2.9543355E-1,3.8260408E-2,-7.075031E-2,-4.9559336E-2,-2.1098472E-2,-1.586304E0,2.2244553E-1,6.7556256E-1,-5.43202E-2,-8.073399E-1,3.94606E-2,-1.6743525E0,-8.9303416E-1,1.0687735E0,-1.3743685E0,3.8979843E-2,-2.0955622E-1,-4.862624E-2,3.7675057E-2,-1.4782254E-2,-4.7299538E-2,1.0358692E-3,-3.611285E-2,3.7942912E-2,-6.722883E-4,-5.5758264E-2,-9.831858E-3,-3.5635397E-2,4.1114613E-2],"categories":[],"categories_nodes":[],"categories_segments":[],"categories_sizes":[],"default_left":[0,0,0,0,0,0,0,0,0,0,0,0,0,0,0,0,0,0,0,0,0,0,0,0,0,0,0,0,0,0,0,0,0,0,0],"id":11,"left_children":[1,3,5,7,9,11,13,-1,15,-1,-1,17,19,21,-1,23,-1,25,27,29,31,-1,33,-1,-1,-1,-1,-1,-1,-1,-1,-1,-1,-1,-1],"loss_changes":[2.1926114E2,1.5863116E2,8.417962E1,1.1641388E2,5.1765976E0,7.759587E1,4.4593693E1,0E0,9.314729E1,0E0,0E0,6.7822266E0,4.075314E1,2.9469027E1,0E0,1.2068177E2,0E0,7.442047E0,5.127372E0,7.065733E0,7.1568527E0,0E0,3.8513527E1,0E0,0E0,0E0,0E0,0E0,0E0,0E0,0E0,0E0,0E0,0E0,0E0],"parents":[2147483647,0,0,1,1,2,2,3,3,4,4,5,5,6,6,8,8,11,11,12,12,13,13,15,15,17,17,18,18,19,19,20,20,22,22],"right_children":[2,4,6,8,10,12,14,-1,16,-1,-1,18,20,22,-1,24,-1,26,28,30,32,-1,34,-1,-1,-1,-1,-1,-1,-1,-1,-1,-1,-1,-1],"split_conditions":[5.0366106E0,2.4026705E1,1E0,5.061077E0,1E0,1E0,2.3215715E1,3.8260408E-2,1E0,-4.9559336E-2,-2.1098472E-2,2.6767176E1,5.1893506E0,4.851018E0,-5.43202E-2,1E0,3.94606E-2,5.667001E-1,1.40434E2,2.3132141E1,8.402531E0,3.8979843E-2,1E0,-4.862624E-2,3.7675057E-2,-1.4782254E-2,-4.7299538E-2,1.0358692E-3,-3.611285E-2,3.7942912E-2,-6.722883E-4,-5.5758264E-2,-9.831858E-3,-3.5635397E-2,4.1114613E-2],"split_indices":[13,12,14,16,14,15,12,0,14,0,0,12,16,16,0,15,0,4,11,12,13,0,15,0,0,0,0,0,0,0,0,0,0,0,0],"split_type":[0,0,0,0,0,0,0,0,0,0,0,0,0,0,0,0,0,0,0,0,0,0,0,0,0,0,0,0,0,0,0,0,0,0,0],"sum_hessian":[4.5294678E2,2.6018292E2,1.9276385E2,2.3130803E2,2.8874886E1,1.4169652E2,5.1067333E1,1.4833069E2,8.297734E1,2.2879019E1,5.9958673E0,1.11583115E2,3.0113403E1,4.382273E1,7.244605E0,5.593737E1,2.7039972E1,9.8983154E1,1.2599963E1,1.9686201E1,1.0427202E1,2.358207E1,2.0240662E1,3.8638634E1,1.7298735E1,5.524584E0,9.345857E1,4.0255713E0,8.574391E0,1.5141075E1,4.545126E0,6.2326427E0,4.1945596E0,1.2347172E1,7.8934894E0],"tree_param":{"num_deleted":"0","num_feature":"17","num_nodes":"35","size_leaf_vector":"1"}},{"base_weights":[1.1521564E-2,5.5038035E-1,-7.51815E-1,8.192254E-1,-1.3683728E0,-1.175597E0,5.178015E-1,3.7974495E-2,-1.5554002E-2,-1.5562856E0,-1.1005049E-3,-1.560009E0,1.8795505E-1,1.2138927E0,-3.425018E-1,-8.532538E-1,3.844392E-2,-5.230024E-2,-1.0799384E0,-1.7946144E0,-1.3980198E0,1.0118104E0,-1.0509299E0,3.850479E-2,6.2395516E-3,-1.295039E0,3.72078E-2,-4.4705287E-2,3.763973E-2,-1.5952282E-2,-5.2806884E-2,-1.7788636E-2,-5.1888984E-2,-9.246456E-3,-4.0523246E-2,3.986811E-2,-6.729789E-3,-4.7879703E-2,9.556688E-3,-1.23261735E-2,-5.608516E-2],"categories":[],"categories_nodes":[],"categories_segments":[],"categories_sizes":[],"default_left":[0,0,0,0,0,0,0,0,0,0,0,0,0,0,0,0,0,0,0,0,0,0,0,0,0,0,0,0,0,0,0,0,0,0,0,0,0,0,0,0,0],"id":12,"left_children":[1,3,5,7,9,11,13,-1,15,17,-1,19,21,23,25,27,-1,-1,29,31,33,35,37,-1,-1,39,-1,-1,-1,-1,-1,-1,-1,-1,-1,-1,-1,-1,-1,-1,-1],"loss_changes":[1.8490596E2,1.3595432E2,1.0009848E2,1.1163486E2,8.081215E0,7.311316E1,2.7894714E1,0E0,1.1344291E2,4.9431076E0,0E0,4.084137E0,3.134668E1,5.1475983E0,3.402594E1,1.0593858E2,0E0,0E0,5.26719E0,5.808319E0,6.3695526E0,1.0592768E1,1.2255381E1,0E0,0E0,8.656279E0,0E0,0E0,0E0,0E0,0E0,0E0,0E0,0E0,0E0,0E0,0E0,0E0,0E0,0E0,0E0],"parents":[2147483647,0,0,1,1,2,2,3,3,4,4,5,5,6,6,8,8,9,9,11,11,12,12,13,13,14,14,15,15,18,18,19,19,20,20,21,21,22,22,25,25],"right_children":[2,4,6,8,10,12,14,-1,16,18,-1,20,22,24,26,28,-1,-1,30,32,34,36,38,-1,-1,40,-1,-1,-1,-1,-1,-1,-1,-1,-1,-1,-1,-1,-1,-1,-1],"split_conditions":[5.026306E0,2.4026705E1,1E0,4.9736476E0,3.6840875E2,1E0,4.903379E0,3.7974495E-2,1E0,1.204406E1,-1.1005049E-3,1.1968872E1,4.9736476E0,2.0883474E1,1E0,1E0,3.844392E-2,-5.230024E-2,2.7615652E1,9.580908E-1,1.3703827E1,1.9560106E1,8.914065E1,3.850479E-2,6.2395516E-3,7.1E1,3.72078E-2,-4.4705287E-2,3.763973E-2,-1.5952282E-2,-5.2806884E-2,-1.7788636E-2,-5.1888984E-2,-9.246456E-3,-4.0523246E-2,3.986811E-2,-6.729789E-3,-4.7879703E-2,9.556688E-3,-1.23261735E-2,-5.608516E-2],"split_indices":[16,12,14,13,11,15,13,0,14,2,0,12,13,12,15,15,0,0,12,2,12,12,10,0,0,0,0,0,0,0,0,0,0,0,0,0,0,0,0,0,0],"split_type":[0,0,0,0,0,0,0,0,0,0,0,0,0,0,0,0,0,0,0,0,0,0,0,0,0,0,0,0,0,0,0,0,0,0,0,0,0,0,0,0,0],"sum_hessian":[4.4949072E2,2.634912E2,1.8599951E2,2.311196E2,3.2371605E1,1.3945328E2,4.6546246E1,1.3650076E2,9.4618835E1,2.835541E1,4.0161963E0,1.08782455E2,3.0670816E1,2.5724031E1,2.0822214E1,5.9680897E1,3.4937935E1,1.5946902E1,1.2408508E1,4.4348965E1,6.4433495E1,1.8423164E1,1.2247651E1,2.1310698E1,4.413332E0,1.3381907E1,7.4403076E0,4.4084633E1,1.5596266E1,7.9229007E0,4.4856076E0,4.0879674E0,4.0260998E1,5.24543E0,5.918806E1,1.3526211E1,4.8969545E0,8.122623E0,4.1250277E0,6.4074273E0,6.9744797E0],"tree_param":{"num_deleted":"0","num_feature":"17","num_nodes":"41","size_leaf_vector":"1"}},{"base_weights":[-9.332734E-4,5.475667E-1,-7.468187E-1,8.1228656E-1,-1.3922812E0,-1.0563076E0,4.6435493E-1,3.7112944E-2,-1.1322606E-1,-9.68233E-3,-1.5961347E0,-6.1872244E-1,-1.3503951E0,7.8484964E-1,-3.975913E-2,-4.2580396E-1,3.536769E-2,-5.1005144E-2,-1.5680498E-2,-2.6249674E-1,-1.0170263E0,-1.069857E0,-1.7208897E0,3.657827E-2,1.8423769E-1,-3.704959E-2,-7.816335E-3,-1.26286065E-2,3.0257307E-2,-5.2444324E-2,-2.0527499E-2,-2.2907471E-2,-5.01606E-2,-1.7429769E-2,-5.025729E-2,-7.685554E-3,3.3186834E-2],"categories":[],"categories_nodes":[],"categories_segments":[],"categories_sizes":[],"default_left":[0,0,0,0,0,0,0,0,0,0,0,0,0,0,0,0,0,0,0,0,0,0,0,0,0,0,0,0,0,0,0,0,0,0,0,0,0],"id":13,"left_children":[1,3,5,7,9,11,13,-1,15,-1,17,19,21,23,-1,25,-1,-1,-1,27,29,31,33,-1,35,-1,-1,-1,-1,-1,-1,-1,-1,-1,-1,-1,-1],"loss_changes":[1.7982564E2,1.3008942E2,6.982792E1,1.1424057E2,6.4125824E0,1.907489E1,2.3453623E1,0E0,3.6925964E1,0E0,7.2622833E0,8.460609E0,9.183014E0,1.0966196E1,0E0,8.848104E0,0E0,0E0,0E0,8.789278E0,6.6955776E0,8.8630905E0,5.2942123E0,0E0,7.6347446E0,0E0,0E0,0E0,0E0,0E0,0E0,0E0,0E0,0E0,0E0,0E0,0E0],"parents":[2147483647,0,0,1,1,2,2,3,3,4,4,5,5,6,6,8,8,10,10,11,11,12,12,13,13,15,15,19,19,20,20,21,21,22,22,24,24],"right_children":[2,4,6,8,10,12,14,-1,16,-1,18,20,22,24,-1,26,-1,-1,-1,28,30,32,34,-1,36,-1,-1,-1,-1,-1,-1,-1,-1,-1,-1,-1,-1],"split_conditions":[5.061077E0,2.4026705E1,1E0,4.9736476E0,5.0627744E-1,4.1785016E0,2.3215715E1,3.7112944E-2,1E0,-9.68233E-3,1E0,8.8752165E0,5.547967E0,5.021272E0,-3.975913E-2,7.1E1,3.536769E-2,-5.1005144E-2,-1.5680498E-2,9.095786E0,1.5649553E2,8.205371E0,1.6998568E1,3.657827E-2,8.575908E0,-3.704959E-2,-7.816335E-3,-1.26286065E-2,3.0257307E-2,-5.2444324E-2,-2.0527499E-2,-2.2907471E-2,-5.01606E-2,-1.7429769E-2,-5.025729E-2,-7.685554E-3,3.3186834E-2],"split_indices":[16,12,15,13,16,13,12,0,15,0,15,2,4,13,0,7,0,0,0,4,11,5,1,0,13,0,0,0,0,0,0,0,0,0,0,0,0],"split_type":[0,0,0,0,0,0,0,0,0,0,0,0,0,0,0,0,0,0,0,0,0,0,0,0,0,0,0,0,0,0,0,0,0,0,0,0,0],"sum_hessian":[4.395041E2,2.5326591E2,1.8623817E2,2.2286462E2,3.040129E1,1.483366E2,3.7901585E1,1.394272E2,8.343741E1,5.0080924E0,2.53932E1,5.964743E1,8.868916E1,3.250907E1,5.3925133E0,6.835286E1,1.5084551E1,1.9886305E1,5.5068955E0,3.1504614E1,2.8142815E1,5.051665E1,3.8172512E1,1.6787941E1,1.5721128E1,8.749163E0,5.9603695E1,2.7477955E1,4.0266604E0,6.2340193E0,2.1908794E1,3.9134956E1,1.1381697E1,4.088539E0,3.4083973E1,1.0849874E1,4.8712554E0],"tree_param":{"num_deleted":"0","num_feature":"17","num_nodes":"37","size_leaf_vector":"1"}},{"base_weights":[3.204021E-2,5.7129127E-1,-7.2030956E-1,8.4245527E-1,-1.5941458E0,-1.1584351E0,4.631918E-1,6.612376E-1,3.6863405E-2,-4.738312E-2,-2.0682672E-2,-1.5359967E0,2.1851118E-1,6.909305E-1,-4.0374987E-2,5.214279E-1,3.630045E-2,-1.018431E0,-1.679752E0,6.05509E-1,-5.0699312E-2,8.505939E-1,-9.394564E-3,2.181938E-2,7.0893504E-3,-1.2474814E-2,-4.9240205E-2,-4.722974E-2,-1.6982092E-2,-2.1579172E-3,2.3459032E-2,1.8913634E-2,3.893465E-2],"categories":[],"categories_nodes":[],"categories_segments":[],"categories_sizes":[],"default_left":[0,0,0,0,0,0,0,0,0,0,0,0,0,0,0,0,0,0,0,0,0,0,0,0,0,0,0,0,0,0,0,0,0],"id":14,"left_children":[1,3,5,7,9,11,13,15,-1,-1,-1,17,19,21,-1,23,-1,25,27,29,-1,31,-1,-1,-1,-1,-1,-1,-1,-1,-1,-1,-1],"loss_changes":[1.7716048E2,1.493836E2,9.454461E1,2.1056763E1,3.5094376E0,6.918367E1,2.1894302E1,1.576461E1,0E0,0E0,0E0,7.735367E0,2.3138485E1,7.310873E0,0E0,1.016288E1,0E0,1.0086554E1,5.036804E0,4.274335E0,0E0,3.4201393E0,0E0,0E0,0E0,0E0,0E0,0E0,0E0,0E0,0E0,0E0,0E0],"parents":[2147483647,0,0,1,1,2,2,3,3,4,4,5,5,6,6,7,7,11,11,12,12,13,13,15,15,17,17,18,18,19,19,21,21],"right_children":[2,4,6,8,10,12,14,16,-1,-1,-1,18,20,22,-1,24,-1,26,28,30,-1,32,-1,-1,-1,-1,-1,-1,-1,-1,-1,-1,-1],"split_conditions":[5.026306E0,2.3789999E1,1E0,1E0,3.5395016E2,1E0,2.3789999E1,1E0,3.6863405E-2,-4.738312E-2,-2.0682672E-2,6.6E1,2.2987888E1,9.161436E0,-4.0374987E-2,9.58368E0,3.630045E-2,1.0518349E1,1.77E2,2.6150737E0,-5.0699312E-2,1E0,-9.394564E-3,2.181938E-2,7.0893504E-3,-1.2474814E-2,-4.9240205E-2,-4.722974E-2,-1.6982092E-2,-2.1579172E-3,2.3459032E-2,1.8913634E-2,3.893465E-2],"split_indices":[16,12,14,14,11,15,12,15,0,0,0,0,12,5,0,12,0,2,6,3,0,15,0,0,0,0,0,0,0,0,0,0,0],"split_type":[0,0,0,0,0,0,0,0,0,0,0,0,0,0,0,0,0,0,0,0,0,0,0,0,0,0,0,0,0,0,0,0,0],"sum_hessian":[4.3663193E2,2.5433833E2,1.8229361E2,2.2604456E2,2.829378E1,1.3304247E2,4.9251144E1,1.671942E2,5.8850357E1,2.3957796E1,4.3359838E0,1.04410545E2,2.8631918E1,4.4110798E1,5.1403475E0,1.385334E2,2.8660797E1,2.2731888E1,8.167866E1,2.4161045E1,4.470873E0,3.8227192E1,5.8836055E0,6.65336E1,7.19998E1,1.3356574E1,9.375313E0,7.7359146E1,4.3195114E0,6.6143384E0,1.7546707E1,3.025273E1,7.9744635E0],"tree_param":{"num_deleted":"0","num_feature":"17","num_nodes":"33","size_leaf_vector":"1"}},{"base_weights":[2.57987E-2,5.351301E-1,-6.8443197E-1,7.76478E-1,-1.3776715E0,-1.0997307E0,4.4327968E-1,5.752333E-1,3.7194446E-2,-1.5851445E0,-1.3773856E-2,-1.4523726E0,1.5710501E-1,6.8838036E-1,-3.1154348E-2,4.5171645E-1,3.468822E-2,-4.901637E-2,-1.5218001E-2,-8.5226923E-1,-1.5447284E0,-5.798021E-1,8.5605896E-1,4.2124113E-1,3.874992E-2,7.956775E-3,1.9088073E-2,-3.3452378E-3,-3.979149E-2,-4.4437908E-2,-2.5478499E-2,-3.051491E-2,9.419229E-3,3.9308455E-2,9.543941E-3,1.7202387E-2,-1.5014772E-2],"categories":[],"categories_nodes":[],"categories_segments":[],"categories_sizes":[],"default_left":[0,0,0,0,0,0,0,0,0,0,0,0,0,0,0,0,0,0,0,0,0,0,0,0,0,0,0,0,0,0,0,0,0,0,0,0,0],"id":15,"left_children":[1,3,5,7,9,11,13,15,-1,17,-1,19,21,23,-1,25,-1,-1,-1,27,29,31,33,35,-1,-1,-1,-1,-1,-1,-1,-1,-1,-1,-1,-1,-1],"loss_changes":[1.583949E2,1.1774135E2,8.565392E1,2.6988815E1,5.1459084E0,5.9242447E1,1.9202967E1,1.4639828E1,0E0,5.159668E0,0E0,5.7580414E0,1.5102752E1,8.39967E0,0E0,5.726122E0,0E0,0E0,0E0,6.2323866E0,4.9614716E0,7.1955404E0,4.4770765E0,6.480141E0,0E0,0E0,0E0,0E0,0E0,0E0,0E0,0E0,0E0,0E0,0E0,0E0,0E0],"parents":[2147483647,0,0,1,1,2,2,3,3,4,4,5,5,6,6,7,7,9,9,11,11,12,12,13,13,15,15,19,19,20,20,21,21,22,22,23,23],"right_children":[2,4,6,8,10,12,14,16,-1,18,-1,20,22,24,-1,26,-1,-1,-1,28,30,32,34,36,-1,-1,-1,-1,-1,-1,-1,-1,-1,-1,-1,-1,-1],"split_conditions":[5.061077E0,2.4026705E1,1E0,1E0,3.5395016E2,1E0,2.3132141E1,1E0,3.7194446E-2,8.951449E0,-1.3773856E-2,2.9130507E1,2.620735E2,1E0,-3.1154348E-2,6.937747E1,3.468822E-2,-4.901637E-2,-1.5218001E-2,8.7E1,9.0630035E1,6.7252784E0,3.192946E2,8.44061E0,3.874992E-2,7.956775E-3,1.9088073E-2,-3.3452378E-3,-3.979149E-2,-4.4437908E-2,-2.5478499E-2,-3.051491E-2,9.419229E-3,3.9308455E-2,9.543941E-3,1.7202387E-2,-1.5014772E-2],"split_indices":[16,12,14,14,11,15,12,15,0,5,0,10,11,15,0,10,0,0,0,7,10,3,11,5,0,0,0,0,0,0,0,0,0,0,0,0,0],"split_type":[0,0,0,0,0,0,0,0,0,0,0,0,0,0,0,0,0,0,0,0,0,0,0,0,0,0,0,0,0,0,0,0,0,0,0,0,0],"sum_hessian":[4.3782535E2,2.549772E2,1.8284814E2,2.264206E2,2.855662E1,1.3363522E2,4.9212917E1,1.6905122E2,5.7369373E1,2.3047934E1,5.508686E0,1.0435285E2,2.9282373E1,4.2649956E1,6.5629625E0,1.4377295E2,2.5278275E1,1.8976515E1,4.071419E0,1.39455185E1,9.040733E1,1.4255863E1,1.5026509E1,3.1337511E1,1.1312446E1,8.806363E1,5.5709312E1,6.377112E0,7.5684066E0,7.8592514E1,1.1814825E1,8.982955E0,5.2729087E0,6.905604E0,8.120906E0,2.574224E1,5.5952706E0],"tree_param":{"num_deleted":"0","num_feature":"17","num_nodes":"37","size_leaf_vector":"1"}},{"base_weights":[1.9761477E-2,4.9866387E-1,-6.3314414E-1,7.4939764E-1,-1.281043E0,-9.5049495E-1,3.5850075E-1,6.523565E-1,3.5653338E-2,-4.8359558E-2,-7.7695274E-1,-1.0084451E0,6.1013545E-3,6.1844486E-1,-3.800162E-2,-1.0187422E-2,6.857443E-1,-1.2738702E0,4.849997E-3,-3.815604E-1,-1.1455905E0,3.4813322E-2,4.0688628E-1,2.430267E-2,1.5375231E-2,-1.3425192E-2,-4.8970062E-2,-3.0437523E-2,7.492539E-3,-3.3385582E-2,-5.0732247E-3,-1.421709E-2,1.8092843E-2],"categories":[],"categories_nodes":[],"categories_segments":[],"categories_sizes":[],"default_left":[0,0,0,0,0,0,0,0,0,0,0,0,0,0,0,0,0,0,0,0,0,0,0,0,0,0,0,0,0,0,0,0,0],"id":16,"left_children":[1,3,5,7,9,11,13,15,-1,-1,17,19,-1,21,-1,-1,23,25,-1,27,29,-1,31,-1,-1,-1,-1,-1,-1,-1,-1,-1,-1],"loss_changes":[1.3321039E2,1.0968712E2,5.6736694E1,1.1751404E1,7.607952E0,9.304359E0,1.9987852E1,6.30941E0,0E0,0E0,7.1915464E0,1.1181061E1,0E0,5.333192E0,0E0,0E0,4.4428635E0,4.087673E0,0E0,1.1367265E1,8.522919E0,0E0,6.974887E0,0E0,0E0,0E0,0E0,0E0,0E0,0E0,0E0,0E0,0E0],"parents":[2147483647,0,0,1,1,2,2,3,3,4,4,5,5,6,6,7,7,10,10,11,11,13,13,16,16,17,17,19,19,20,20,22,22],"right_children":[2,4,6,8,10,12,14,16,-1,-1,18,20,-1,22,-1,-1,24,26,-1,28,30,-1,32,-1,-1,-1,-1,-1,-1,-1,-1,-1,-1],"split_conditions":[5.026306E0,2.4026705E1,1E0,1E0,6.519626E0,9.681871E1,2.3656693E1,5.0898784E-1,3.5653338E-2,-4.8359558E-2,8.05276E0,2.9420027E1,6.1013545E-3,5.173993E0,-3.800162E-2,-1.0187422E-2,8.273004E0,5.0391603E0,4.849997E-3,2.4869797E1,9.334937E0,3.4813322E-2,6.391499E0,2.430267E-2,1.5375231E-2,-1.3425192E-2,-4.8970062E-2,-3.0437523E-2,7.492539E-3,-3.3385582E-2,-5.0732247E-3,-1.421709E-2,1.8092843E-2],"split_indices":[16,12,15,15,4,10,12,4,0,0,5,10,0,5,0,0,12,5,0,10,4,0,5,0,0,0,0,0,0,0,0,0,0],"split_type":[0,0,0,0,0,0,0,0,0,0,0,0,0,0,0,0,0,0,0,0,0,0,0,0,0,0,0,0,0,0,0,0,0],"sum_hessian":[4.2598984E2,2.4574335E2,1.8024649E2,2.1540741E2,3.0335936E1,1.3654846E2,4.369803E1,1.837726E2,3.1634802E1,1.5219113E1,1.5116822E1,1.3013365E2,6.414809E0,3.807844E1,5.619587E0,5.7779517E0,1.7799466E2,9.94036E0,5.176461E0,2.337306E1,1.067606E2,9.186706E0,2.8891737E1,6.484525E1,1.131494E2,4.032281E0,5.9080796E0,1.0998021E1,1.2375039E1,9.8223076E1,8.537518E0,6.2895966E0,2.260214E1],"tree_param":{"num_deleted":"0","num_feature":"17","num_nodes":"33","size_leaf_vector":"1"}},{"base_weights":[3.8670716E-3,5.936897E-1,-6.993241E-1,1.086321E0,-2.6599833E-1,-1.2181265E0,5.304469E-1,3.5989244E-2,-9.469628E-1,-9.4469154E-1,1.2567998E0,-1.4266108E0,-3.2657516E-1,7.989343E-1,-4.887084E-2,-4.0937923E-2,2.4540704E-3,-1.6401513E0,8.548167E-1,3.9356332E-2,1.28384605E-2,-6.0271484E-1,-1.5157181E0,7.372626E-1,-1.5956272E0,3.6447063E-2,7.3153717E-3,-4.9498096E-2,-1.9854672E-2,3.603869E-2,-1.3000912E-2,2.4465665E-3,-2.7520977E-2,-4.6725564E-2,-3.4615576E-2,-9.3826195E-3,3.363731E-2,-2.3747817E-2,-5.4574102E-2,-2.6909277E-2,3.901909E-2],"categories":[],"categories_nodes":[],"categories_segments":[],"categories_sizes":[],"default_left":[0,0,0,0,0,0,0,0,0,0,0,0,0,0,0,0,0,0,0,0,0,0,0,0,0,0,0,0,0,0,0,0,0,0,0,0,0,0,0,0,0],"id":17,"left_children":[1,3,5,7,9,11,13,-1,15,17,19,21,23,25,-1,-1,-1,27,29,-1,-1,31,33,35,37,-1,39,-1,-1,-1,-1,-1,-1,-1,-1,-1,-1,-1,-1,-1,-1],"loss_changes":[1.7554057E2,9.7485886E1,1.23189415E2,7.09538E1,8.6699356E1,2.5230103E1,3.586167E1,0E0,8.9281225E0,7.2641846E1,3.8774757E0,8.060608E0,3.480342E1,2.207418E1,0E0,0E0,0E0,6.892685E0,1.0193745E1,0E0,0E0,3.0642183E0,4.8532715E0,7.615347E0,3.468422E0,0E0,2.9856066E1,0E0,0E0,0E0,0E0,0E0,0E0,0E0,0E0,0E0,0E0,0E0,0E0,0E0,0E0],"parents":[2147483647,0,0,1,1,2,2,3,3,4,4,5,5,6,6,8,8,9,9,10,10,11,11,12,12,13,13,17,17,18,18,21,21,22,22,23,23,24,24,26,26],"right_children":[2,4,6,8,10,12,14,-1,16,18,20,22,24,26,-1,-1,-1,28,30,-1,-1,32,34,36,38,-1,40,-1,-1,-1,-1,-1,-1,-1,-1,-1,-1,-1,-1,-1,-1],"split_conditions":[4.9736476E0,5.1228065E0,1E0,2.4026705E1,1E0,1E0,2.3215715E1,3.5989244E-2,9.8E1,1E0,2.0883474E1,1.6794006E1,4.878135E0,4.8018017E0,-4.887084E-2,-4.0937923E-2,2.4540704E-3,8.628927E0,1.9560106E1,3.9356332E-2,1.28384605E-2,5.5623174E0,5.88632E0,4.7115314E1,8.8E1,3.6447063E-2,1E0,-4.9498096E-2,-1.9854672E-2,3.603869E-2,-1.3000912E-2,2.4465665E-3,-2.7520977E-2,-4.6725564E-2,-3.4615576E-2,-9.3826195E-3,3.363731E-2,-2.3747817E-2,-5.4574102E-2,-2.6909277E-2,3.901909E-2],"split_indices":[13,16,14,12,14,15,12,0,7,15,12,1,16,16,0,0,0,4,12,0,0,2,16,10,7,0,15,0,0,0,0,0,0,0,0,0,0,0,0,0,0],"split_type":[0,0,0,0,0,0,0,0,0,0,0,0,0,0,0,0,0,0,0,0,0,0,0,0,0,0,0,0,0,0,0,0,0,0,0,0,0,0,0,0,0],"sum_hessian":[4.2319568E2,2.3015198E2,1.930437E2,1.4630739E2,8.384458E1,1.357677E2,5.7276012E1,1.3095992E2,1.5347476E1,5.800162E1,2.5842962E1,1.10026474E2,2.5741219E1,5.136835E1,5.90766E0,9.961397E0,5.3860793E0,4.1835255E1,1.6166367E1,2.074967E1,5.093291E0,1.0753679E1,9.92728E1,1.4007391E1,1.1733828E1,3.0468794E1,2.0899557E1,3.4847687E1,6.987568E0,1.1941716E1,4.2246494E0,4.0058E0,6.747879E0,5.373165E1,4.5541145E1,4.4326873E0,9.574704E0,4.2956085E0,7.4382195E0,1.230986E1,8.589698E0],"tree_param":{"num_deleted":"0","num_feature":"17","num_nodes":"41","size_leaf_vector":"1"}},{"base_weights":[1.9891862E-2,5.107197E-1,-6.3911873E-1,7.856199E-1,-1.4162521E0,-1.0924535E0,5.0122094E-1,5.764266E-1,3.6318135E-2,-8.4312826E-1,-4.437389E-2,-1.4385792E0,2.0794105E-2,6.967144E-1,-3.5888895E-2,4.3156704E-1,3.54837E-2,2.4159625E-3,-4.7103137E-2,-9.9166405E-1,-1.5310243E0,3.6957008E-1,-4.7919977E-2,8.3933544E-1,-8.725149E-3,2.0351056E-2,8.579627E-3,2.1166287E-2,-4.188902E-2,-4.306398E-2,-2.1230178E-2,3.6432125E-2,3.2842252E-4,4.5523443E-3,2.7204828E-2],"categories":[],"categories_nodes":[],"categories_segments":[],"categories_sizes":[],"default_left":[0,0,0,0,0,0,0,0,0,0,0,0,0,0,0,0,0,0,0,0,0,0,0,0,0,0,0,0,0,0,0,0,0,0,0],"id":18,"left_children":[1,3,5,7,9,11,13,15,-1,17,-1,19,21,23,-1,25,-1,-1,-1,27,29,31,-1,33,-1,-1,-1,-1,-1,-1,-1,-1,-1,-1,-1],"loss_changes":[1.4100378E2,1.323696E2,9.6206726E1,2.5197784E1,3.8539848E0,5.1308365E1,1.8880009E1,1.6746578E1,0E0,7.1533E0,0E0,4.165863E0,1.9683067E1,6.948904E0,0E0,4.858656E0,0E0,0E0,0E0,1.7042423E1,3.3866425E0,9.185578E0,0E0,4.5637226E0,0E0,0E0,0E0,0E0,0E0,0E0,0E0,0E0,0E0,0E0,0E0],"parents":[2147483647,0,0,1,1,2,2,3,3,4,4,5,5,6,6,7,7,9,9,11,11,12,12,13,13,15,15,19,19,20,20,21,21,23,23],"right_children":[2,4,6,8,10,12,14,16,-1,18,-1,20,22,24,-1,26,-1,-1,-1,28,30,32,-1,34,-1,-1,-1,-1,-1,-1,-1,-1,-1,-1,-1],"split_conditions":[5.026306E0,2.4026705E1,1E0,1E0,2.3497269E1,1E0,2.3789999E1,1E0,3.6318135E-2,1.9477326E0,-4.437389E-2,1.8755428E1,2.3656693E1,9.218167E0,-3.5888895E-2,2.5244508E0,3.54837E-2,2.4159625E-3,-4.7103137E-2,6.6E1,1.9013498E1,4.795067E0,-4.7919977E-2,3.1029737E0,-8.725149E-3,2.0351056E-2,8.579627E-3,2.1166287E-2,-4.188902E-2,-4.306398E-2,-2.1230178E-2,3.6432125E-2,3.2842252E-4,4.5523443E-3,2.7204828E-2],"split_indices":[16,12,14,14,1,15,12,15,0,16,0,1,12,5,0,3,0,0,0,0,2,5,0,3,0,0,0,0,0,0,0,0,0,0,0],"split_type":[0,0,0,0,0,0,0,0,0,0,0,0,0,0,0,0,0,0,0,0,0,0,0,0,0,0,0,0,0,0,0,0,0,0,0],"sum_hessian":[4.3588177E2,2.4982094E2,1.8606085E2,2.1864168E2,3.1179258E1,1.3313481E2,5.292605E1,1.5852083E2,6.012084E1,8.592806E0,2.2586452E1,1.0155416E2,3.1580645E1,4.7809452E1,5.1165943E0,1.3229015E2,2.6230688E1,4.2077546E0,4.3850517E0,1.7446806E1,8.410735E1,2.6431236E1,5.14941E0,4.1936947E1,5.8725066E0,3.5314545E1,9.69756E1,4.133963E0,1.3312843E1,7.842432E1,5.68304E0,7.095027E0,1.9336208E1,8.157785E0,3.3779163E1],"tree_param":{"num_deleted":"0","num_feature":"17","num_nodes":"35","size_leaf_vector":"1"}},{"base_weights":[7.630675E-3,5.6203973E-1,-7.5333947E-1,3.8965723E-1,3.0020364E-2,-1.1654452E0,4.1650796E-1,2.6578918E-1,2.5562823E-2,-1.4218998E0,-1.5078E-1,9.1346544E-1,1.1173019E-1,3.5999024E-1,-4.5270568E-1,-1.1190672E0,-4.5066185E-2,2.035104E-1,-3.7009872E-2,3.6189666E-3,3.1934246E-2,-5.2973115E-1,3.9999703E-1,6.796925E-3,2.5029596E-2,6.8714903E-3,-3.48236E-2,-2.0286959E-2,-4.3612104E-2,-4.3163234E-3,3.176037E-2,-3.0657902E-2,4.217291E-3,-2.1167786E-3,2.35717E-2],"categories":[],"categories_nodes":[],"categories_segments":[],"categories_sizes":[],"default_left":[0,0,0,0,0,0,0,0,0,0,0,0,0,0,0,0,0,0,0,0,0,0,0,0,0,0,0,0,0,0,0,0,0,0,0],"id":19,"left_children":[1,3,5,7,-1,9,11,13,-1,15,17,19,21,23,25,27,-1,29,-1,-1,-1,31,33,-1,-1,-1,-1,-1,-1,-1,-1,-1,-1,-1,-1],"loss_changes":[1.804483E2,2.3151344E1,8.6920334E1,1.2822002E1,0E0,3.468695E1,7.113179E0,1.0386486E1,0E0,7.5977936E0,1.1560355E1,3.6468458E0,5.392987E0,8.355419E0,1.0415037E1,8.443756E0,0E0,7.2980013E0,0E0,0E0,0E0,3.7127843E0,4.4975867E0,0E0,0E0,0E0,0E0,0E0,0E0,0E0,0E0,0E0,0E0,0E0,0E0],"parents":[2147483647,0,0,1,1,2,2,3,3,5,5,6,6,7,7,9,9,10,10,11,11,12,12,13,13,14,14,15,15,17,17,21,21,22,22],"right_children":[2,4,6,8,-1,10,12,14,-1,16,18,20,22,24,26,28,-1,30,-1,-1,-1,32,34,-1,-1,-1,-1,-1,-1,-1,-1,-1,-1,-1,-1],"split_conditions":[5.021272E0,1E0,1E0,1E0,3.0020364E-2,1E0,6.0224586E0,4.4507904E0,2.5562823E-2,1.104482E2,1.53E2,6.4982233E0,1.19E2,3.6563427E1,1.3064401E2,7.767483E0,-4.5066185E-2,1.38E2,-3.7009872E-2,3.6189666E-3,3.1934246E-2,1.2546344E1,2.3661488E2,6.796925E-3,2.5029596E-2,6.8714903E-3,-3.48236E-2,-2.0286959E-2,-4.3612104E-2,-4.3163234E-3,3.176037E-2,-3.0657902E-2,4.217291E-3,-2.1167786E-3,2.35717E-2],"split_indices":[13,14,14,15,0,15,5,13,0,9,6,13,6,1,9,13,0,6,0,0,0,2,8,0,0,0,0,0,0,0,0,0,0,0,0],"split_type":[0,0,0,0,0,0,0,0,0,0,0,0,0,0,0,0,0,0,0,0,0,0,0,0,0,0,0,0,0,0,0,0,0,0,0],"sum_hessian":[4.276749E2,2.4742055E2,1.8025433E2,1.8782452E2,5.9596027E1,1.3329735E2,4.695699E1,1.5338899E2,3.4435535E1,1.06397484E2,2.689987E1,1.7835234E1,2.9121754E1,1.3561832E2,1.7770672E1,4.6753704E1,5.964378E1,2.0826283E1,6.073587E0,4.4909325E0,1.3344302E1,9.024092E0,2.0097662E1,1.1345371E2,2.2164606E1,9.607741E0,8.162931E0,2.6507225E1,2.0246477E1,1.5155149E1,5.6711335E0,4.8081074E0,4.2159843E0,9.948048E0,1.0149614E1],"tree_param":{"num_deleted":"0","num_feature":"17","num_nodes":"35","size_leaf_vector":"1"}},{"base_weights":[4.821512E-2,5.593634E-1,-6.057574E-1,1.0442121E0,-1.5831217E-1,-9.752079E-1,3.357696E-1,3.1153966E-2,8.363297E-1,-7.586306E-1,3.398577E-2,-1.2505152E0,7.783686E-2,2.427493E-2,-5.3024614E-1,-3.7515128E-3,9.2805105E-1,-1.4880646E0,2.8502729E-2,-9.394256E-3,-1.3341384E0,9.358626E-1,-1.3037946E0,-1.409241E0,3.1855635E-2,1.8462963E-2,3.2966044E-2,-4.6037942E-2,-1.9003283E-2,-2.2721857E-2,-3.9340574E-2,5.290113E-3,3.1827543E-2,-5.21136E-2,-8.614707E-3,-1.7889185E-2,-5.2473478E-2],"categories":[],"categories_nodes":[],"categories_segments":[],"categories_sizes":[],"default_left":[0,0,0,0,0,0,0,0,0,0,0,0,0,0,0,0,0,0,0,0,0,0,0,0,0,0,0,0,0,0,0,0,0,0,0,0,0],"id":20,"left_children":[1,3,5,7,9,11,13,-1,15,17,-1,19,21,-1,23,-1,25,27,-1,-1,29,31,33,35,-1,-1,-1,-1,-1,-1,-1,-1,-1,-1,-1,-1,-1],"loss_changes":[1.4550085E2,8.5015335E1,6.643074E1,3.0882263E0,8.337105E1,3.976277E1,2.6010601E1,0E0,4.313511E0,9.115584E1,0E0,8.216385E0,3.374397E1,0E0,3.1615248E1,0E0,3.1093102E0,7.9963684E0,0E0,0E0,5.619629E0,3.062191E0,6.5992413E0,5.434183E0,0E0,0E0,0E0,0E0,0E0,0E0,0E0,0E0,0E0,0E0,0E0,0E0,0E0],"parents":[2147483647,0,0,1,1,2,2,3,3,4,4,5,5,6,6,8,8,9,9,11,11,12,12,14,14,16,16,17,17,20,20,21,21,22,22,23,23],"right_children":[2,4,6,8,10,12,14,-1,16,18,-1,20,22,-1,24,-1,26,28,-1,-1,30,32,34,36,-1,-1,-1,-1,-1,-1,-1,-1,-1,-1,-1,-1,-1],"split_conditions":[5.021272E0,4.878135E0,1E0,1.5716283E2,1E0,1E0,5.0020733E0,3.1153966E-2,6.3E1,1E0,3.398577E-2,1.6794006E1,5.1893506E0,2.427493E-2,1E0,-3.7515128E-3,2.4669972E2,7.8925953E0,2.8502729E-2,-9.394256E-3,6.6E1,1.8862125E2,8.150008E0,3.5860047E0,3.1855635E-2,1.8462963E-2,3.2966044E-2,-4.6037942E-2,-1.9003283E-2,-2.2721857E-2,-3.9340574E-2,5.290113E-3,3.1827543E-2,-5.21136E-2,-8.614707E-3,-1.7889185E-2,-5.2473478E-2],"split_indices":[13,16,14,9,14,15,16,0,0,15,0,1,16,0,15,0,11,4,0,0,0,8,13,4,0,0,0,0,0,0,0,0,0,0,0,0,0],"split_type":[0,0,0,0,0,0,0,0,0,0,0,0,0,0,0,0,0,0,0,0,0,0,0,0,0,0,0,0,0,0,0,0,0,0,0,0,0],"sum_hessian":[4.3522964E2,2.4429239E2,1.9093727E2,1.4579005E2,9.850233E1,1.3712814E2,5.3809128E1,9.757624E1,4.8213814E1,6.908375E1,2.941858E1,1.0870467E2,2.842347E1,3.272922E1,2.1079905E1,4.1470194E0,4.4066795E1,4.9225105E1,1.9858643E1,9.206182E0,9.949849E1,1.7538298E1,1.0885172E1,1.3905389E1,7.1745152E0,2.3594173E1,2.0472622E1,3.899029E1,1.0234813E1,1.8563543E1,8.093495E1,4.2402315E0,1.3298067E1,6.6962175E0,4.1889544E0,5.72331E0,8.182079E0],"tree_param":{"num_deleted":"0","num_feature":"17","num_nodes":"37","size_leaf_vector":"1"}},{"base_weights":[3.776494E-2,5.966864E-1,-6.488847E-1,4.4117403E-1,1.1202762E0,-1.0145103E0,2.858431E-1,3.1459194E-1,2.7700042E-2,3.3068806E-2,1.0754876E-2,-1.2839544E0,1.2946378E-2,1.1150756E-1,2.7282828E-2,2.0867428E-1,8.112045E-1,-3.91286E-1,-1.3879441E0,-2.1646492E-2,3.4107438E-1,-6.42859E-1,3.681551E-1,7.867862E-3,-1.9581182E-2,-4.5422182E-4,2.7760964E-2,1.8693337E-2,-2.7670057E-2,-3.0683285E-2,-4.318896E-2,2.6367264E-2,-2.5452387E-3,-4.4167038E-2,6.7746354E-4,5.3440646E-4,1.9304024E-2],"categories":[],"categories_nodes":[],"categories_segments":[],"categories_sizes":[],"default_left":[0,0,0,0,0,0,0,0,0,0,0,0,0,0,0,0,0,0,0,0,0,0,0,0,0,0,0,0,0,0,0,0,0,0,0,0,0],"id":21,"left_children":[1,3,5,7,9,11,13,15,-1,-1,-1,17,19,21,-1,23,25,27,29,-1,31,33,35,-1,-1,-1,-1,-1,-1,-1,-1,-1,-1,-1,-1,-1,-1],"loss_changes":[1.6316273E2,1.907344E1,6.5204765E1,1.3226482E1,3.7582932E0,3.7965775E1,6.7178087E0,7.7977886E0,0E0,0E0,0E0,1.0074463E1,7.580866E0,8.36877E0,0E0,9.201168E0,4.545807E0,7.7075453E0,5.0397186E0,0E0,5.5583572E0,7.2036734E0,3.847485E0,0E0,0E0,0E0,0E0,0E0,0E0,0E0,0E0,0E0,0E0,0E0,0E0,0E0,0E0],"parents":[2147483647,0,0,1,1,2,2,3,3,4,4,5,5,6,6,7,7,11,11,12,12,13,13,15,15,16,16,17,17,18,18,20,20,21,21,22,22],"right_children":[2,4,6,8,10,12,14,16,-1,-1,-1,18,20,22,-1,24,26,28,30,-1,32,34,36,-1,-1,-1,-1,-1,-1,-1,-1,-1,-1,-1,-1,-1,-1],"split_conditions":[4.9736476E0,1E0,1E0,1E0,1.7291716E1,1E0,1E0,8.369826E0,2.7700042E-2,3.3068806E-2,1.0754876E-2,1.6998568E1,4.2986572E1,7.6E1,2.7282828E-2,9.308076E0,1.8980739E0,5.2097416E0,2.0515398E2,-2.1646492E-2,9.714859E1,5.3580917E1,5.8710604E0,7.867862E-3,-1.9581182E-2,-4.5422182E-4,2.7760964E-2,1.8693337E-2,-2.7670057E-2,-3.0683285E-2,-4.318896E-2,2.6367264E-2,-2.5452387E-3,-4.4167038E-2,6.7746354E-4,5.3440646E-4,1.9304024E-2],"split_indices":[13,14,14,15,2,15,15,4,0,0,0,1,10,7,0,5,3,2,11,0,9,10,3,0,0,0,0,0,0,0,0,0,0,0,0,0,0],"split_type":[0,0,0,0,0,0,0,0,0,0,0,0,0,0,0,0,0,0,0,0,0,0,0,0,0,0,0,0,0,0,0,0,0,0,0,0,0],"sum_hessian":[4.2510233E2,2.3434886E2,1.9075346E2,1.8071239E2,5.363648E1,1.3711731E2,5.363615E1,1.4829169E2,3.24207E1,4.7293743E1,6.3427353E0,1.0862582E2,2.8491499E1,4.318076E1,1.0455388E1,1.2224744E2,2.604425E1,1.1343893E1,9.728192E1,8.207902E0,2.0283596E1,1.095378E1,3.2226982E1,1.124681E2,9.779337E0,5.2860107E0,2.075824E1,4.1684613E0,7.1754317E0,4.2702618E1,5.4579304E1,8.276112E0,1.2007485E1,4.4197416E0,6.534038E0,1.5982181E1,1.62448E1],"tree_param":{"num_deleted":"0","num_feature":"17","num_nodes":"37","size_leaf_vector":"1"}},{"base_weights":[2.025937E-2,5.248422E-1,-6.077671E-1,7.468521E-1,-1.1110898E0,-1.0444809E0,4.8735088E-1,5.584285E-1,3.5007324E-2,-1.4770198E0,-2.880606E-1,-1.3185723E0,4.7307573E-2,8.384799E-1,-3.841961E-2,4.160276E-1,3.5341725E-2,-4.735384E-2,-1.4728739E-2,1.862066E-2,-3.3109646E-2,-9.104173E-3,-1.395745E0,-2.8020246E-2,3.3123448E-1,3.1718513E-1,2.773165E-2,-4.2429864E-3,1.3354789E-2,-3.975767E-2,-4.373251E-3,2.22192E-3,3.5362978E-2,2.2721482E-2,-1.6483111E-2],"categories":[],"categories_nodes":[],"categories_segments":[],"categories_sizes":[],"default_left":[0,0,0,0,0,0,0,0,0,0,0,0,0,0,0,0,0,0,0,0,0,0,0,0,0,0,0,0,0,0,0,0,0,0,0],"id":22,"left_children":[1,3,5,7,9,11,13,15,-1,17,19,21,23,25,-1,27,-1,-1,-1,-1,-1,-1,29,-1,31,33,-1,-1,-1,-1,-1,-1,-1,-1,-1],"loss_changes":[1.3159181E2,8.364502E1,8.8487076E1,2.0681366E1,8.280296E0,3.9581314E1,3.5248047E1,1.5897419E1,0E0,4.7175636E0,7.7137103E0,8.014572E0,8.141762E0,4.226324E0,0E0,5.4603424E0,0E0,0E0,0E0,0E0,0E0,0E0,8.18718E0,0E0,5.0914907E0,5.5599947E0,0E0,0E0,0E0,0E0,0E0,0E0,0E0,0E0,0E0],"parents":[2147483647,0,0,1,1,2,2,3,3,4,4,5,5,6,6,7,7,9,9,10,10,11,11,12,12,13,13,15,15,22,22,24,24,25,25],"right_children":[2,4,6,8,10,12,14,16,-1,18,20,22,24,26,-1,28,-1,-1,-1,-1,-1,-1,30,-1,32,34,-1,-1,-1,-1,-1,-1,-1,-1,-1],"split_conditions":[4.9736476E0,2.4026705E1,1E0,1E0,7.358457E0,1E0,2.3215715E1,1E0,3.5007324E-2,2.9692694E2,4.7634995E1,5.667001E-1,1.3537556E2,6.429282E0,-3.841961E-2,6.9E1,3.5341725E-2,-4.735384E-2,-1.4728739E-2,1.862066E-2,-3.3109646E-2,-9.104173E-3,2.8656517E1,-2.8020246E-2,3.605228E2,5.7684546E0,2.773165E-2,-4.2429864E-3,1.3354789E-2,-3.975767E-2,-4.373251E-3,2.22192E-3,3.5362978E-2,2.2721482E-2,-1.6483111E-2],"split_indices":[13,12,14,14,4,15,12,15,0,11,10,4,11,13,0,7,0,0,0,0,0,0,12,0,11,13,0,0,0,0,0,0,0,0,0],"split_type":[0,0,0,0,0,0,0,0,0,0,0,0,0,0,0,0,0,0,0,0,0,0,0,0,0,0,0,0,0,0,0,0,0,0,0],"sum_hessian":[4.1521783E2,2.3023814E2,1.8497968E2,2.0273613E2,2.7502022E1,1.3224402E2,5.273566E1,1.5044775E2,5.228836E1,1.902651E1,8.4755125E0,1.05703224E2,2.654079E1,4.4525112E1,8.210548E0,1.2626242E2,2.4185339E1,1.4798295E1,4.228215E0,4.1451035E0,4.330409E0,7.6989355E0,9.800429E1,5.5191607E0,2.102163E1,1.1549995E1,3.2975117E1,1.4722869E1,1.1153955E2,9.2908035E1,5.096259E0,1.674043E1,4.281199E0,7.3959665E0,4.1540284E0],"tree_param":{"num_deleted":"0","num_feature":"17","num_nodes":"35","size_leaf_vector":"1"}},{"base_weights":[3.924454E-2,5.7357585E-1,-6.468119E-1,1.0522252E0,-2.6657972E-1,-1.066565E0,3.8885713E-1,3.433084E-2,-1.173609E0,-9.317296E-1,3.4168914E-2,-1.3026553E0,-2.0220121E-2,9.790461E-1,-5.14662E-1,-4.5879137E-2,-2.3885865E-3,-1.4596835E0,6.761369E-1,-9.981487E-1,-1.4906846E0,8.827476E-1,-3.902222E-2,3.450546E-2,-1.3970513E-2,-1.2240734E0,3.0242983E-2,-4.5103963E-2,-1.6384065E-2,3.699555E-2,-2.7220182E-2,-6.4037386E-6,-3.1954557E-2,-4.651451E-2,-3.0503757E-2,3.5086304E-2,7.840992E-4,-5.2115567E-2,-1.747134E-2],"categories":[],"categories_nodes":[],"categories_segments":[],"categories_sizes":[],"default_left":[0,0,0,0,0,0,0,0,0,0,0,0,0,0,0,0,0,0,0,0,0,0,0,0,0,0,0,0,0,0,0,0,0,0,0,0,0,0,0],"id":23,"left_children":[1,3,5,7,9,11,13,-1,15,17,-1,19,21,23,25,-1,-1,27,29,31,33,35,-1,-1,-1,37,-1,-1,-1,-1,-1,-1,-1,-1,-1,-1,-1,-1,-1],"loss_changes":[1.5519128E2,9.571068E1,8.058814E1,7.138777E1,8.76154E1,3.2584167E1,2.8524632E1,0E0,7.359396E0,5.1086926E1,0E0,6.131912E0,3.1103233E1,1.4074184E1,2.4442215E1,0E0,0E0,7.7602386E0,1.715229E1,7.3110466E0,5.3783417E0,5.183181E0,0E0,0E0,0E0,5.917818E0,0E0,0E0,0E0,0E0,0E0,0E0,0E0,0E0,0E0,0E0,0E0,0E0,0E0],"parents":[2147483647,0,0,1,1,2,2,3,3,4,4,5,5,6,6,8,8,9,9,11,11,12,12,13,13,14,14,17,17,18,18,19,19,20,20,21,21,25,25],"right_children":[2,4,6,8,10,12,14,-1,16,18,-1,20,22,24,26,-1,-1,28,30,32,34,36,-1,-1,-1,38,-1,-1,-1,-1,-1,-1,-1,-1,-1,-1,-1,-1,-1],"split_conditions":[4.9736476E0,5.061077E0,1E0,2.3789999E1,1E0,1E0,4.851018E0,3.433084E-2,1E0,1E0,3.4168914E-2,7.1E1,5.026306E0,2.200686E1,1E0,-4.5879137E-2,-2.3885865E-3,8.57839E0,2.200686E1,7.587897E1,6.1185284E0,1.8313406E1,-3.902222E-2,3.450546E-2,-1.3970513E-2,1.38E2,3.0242983E-2,-4.5103963E-2,-1.6384065E-2,3.699555E-2,-2.7220182E-2,-6.4037386E-6,-3.1954557E-2,-4.651451E-2,-3.0503757E-2,3.5086304E-2,7.840992E-4,-5.2115567E-2,-1.747134E-2],"split_indices":[13,16,14,12,14,15,16,0,14,15,0,0,16,12,15,0,0,4,12,11,16,12,0,0,0,6,0,0,0,0,0,0,0,0,0,0,0,0,0],"split_type":[0,0,0,0,0,0,0,0,0,0,0,0,0,0,0,0,0,0,0,0,0,0,0,0,0,0,0,0,0,0,0,0,0,0,0,0,0,0,0],"sum_hessian":[4.2330673E2,2.379691E2,1.8533762E2,1.5159692E2,8.637217E1,1.3188461E2,5.3453003E1,1.3845311E2,1.3143816E1,6.0137867E1,2.6234303E1,1.0760124E2,2.4283375E1,3.233181E1,2.1121195E1,8.906572E0,4.237243E0,4.527378E1,1.4864088E1,4.1126278E1,6.647497E1,1.483303E1,9.450345E0,2.706051E1,5.271297E0,1.4713973E1,6.407222E0,3.6670288E1,8.603492E0,1.055528E1,4.3088083E0,6.2300606E0,3.4896217E1,4.1449833E1,2.5025131E1,1.0024307E1,4.8087225E0,6.6823955E0,8.031577E0],"tree_param":{"num_deleted":"0","num_feature":"17","num_nodes":"39","size_leaf_vector":"1"}},{"base_weights":[6.6307746E-2,5.243488E-1,-4.9142647E-1,7.461195E-1,-1.0741113E0,-8.337955E-1,4.1641745E-1,5.510385E-1,3.4962032E-2,-1.3944018E0,-5.688437E-1,-1.1191951E0,1.3131344E-1,7.4183196E-1,-3.7030008E-2,3.9561993E-1,3.607128E-2,-4.6454053E-2,-1.3606364E-2,4.771992E-3,-3.509456E-2,-3.3414736E-1,-1.2369831E0,3.7208998E-1,-2.5793914E-2,8.522177E-1,-3.3040543E-3,2.1041032E-2,5.6881113E-3,8.77176E-3,-4.5025676E-2,-1.47177745E-2,-3.5944965E-2,-1.5006302E-2,1.744096E-2,9.142215E-3,2.7290901E-2],"categories":[],"categories_nodes":[],"categories_segments":[],"categories_sizes":[],"default_left":[0,0,0,0,0,0,0,0,0,0,0,0,0,0,0,0,0,0,0,0,0,0,0,0,0,0,0,0,0,0,0,0,0,0,0,0,0],"id":24,"left_children":[1,3,5,7,9,11,13,15,-1,17,19,21,23,25,-1,27,-1,-1,-1,-1,-1,29,31,33,-1,35,-1,-1,-1,-1,-1,-1,-1,-1,-1,-1,-1],"loss_changes":[1.05759E2,8.0594574E1,5.8030117E1,2.1045448E1,4.4671364E0,3.7342926E1,2.9630625E1,1.7702648E1,0E0,4.7588196E0,5.807661E0,9.666397E0,8.06288E0,4.1236725E0,0E0,8.62677E0,0E0,0E0,0E0,0E0,0E0,1.1901801E1,5.4310913E0,6.3273783E0,0E0,3.0052052E0,0E0,0E0,0E0,0E0,0E0,0E0,0E0,0E0,0E0,0E0,0E0],"parents":[2147483647,0,0,1,1,2,2,3,3,4,4,5,5,6,6,7,7,9,9,10,10,11,11,12,12,13,13,15,15,21,21,22,22,23,23,25,25],"right_children":[2,4,6,8,10,12,14,16,-1,18,20,22,24,26,-1,28,-1,-1,-1,-1,-1,30,32,34,-1,36,-1,-1,-1,-1,-1,-1,-1,-1,-1,-1,-1],"split_conditions":[4.9736476E0,2.3789999E1,1E0,1E0,2.6415723E2,1E0,2.2987888E1,1E0,3.4962032E-2,8.6E1,9.013919E0,1.7811506E1,1.54E2,9.352337E0,-3.7030008E-2,1.14E2,3.607128E-2,-4.6454053E-2,-1.3606364E-2,4.771992E-3,-3.509456E-2,8E1,2.6227854E1,4.495181E1,-2.5793914E-2,6.0884523E0,-3.3040543E-3,2.1041032E-2,5.6881113E-3,8.77176E-3,-4.5025676E-2,-1.47177745E-2,-3.5944965E-2,-1.5006302E-2,1.744096E-2,9.142215E-3,2.7290901E-2],"split_indices":[13,12,14,14,11,15,12,15,0,0,2,1,6,5,0,6,0,0,0,0,0,0,10,10,0,13,0,0,0,0,0,0,0,0,0,0,0],"split_type":[0,0,0,0,0,0,0,0,0,0,0,0,0,0,0,0,0,0,0,0,0,0,0,0,0,0,0,0,0,0,0,0,0,0,0,0,0],"sum_hessian":[4.1394537E2,2.2728667E2,1.866587E2,1.996043E2,2.7682362E1,1.3554369E2,5.1115017E1,1.4671844E2,5.2885857E1,1.6920698E1,1.07616625E1,1.0460648E2,3.0937202E1,4.322251E1,7.8925033E0,1.22280396E2,2.4438046E1,1.2491591E1,4.429106E0,5.3093348E0,5.452328E0,1.3657548E1,9.094894E1,2.531143E1,5.6257715E0,3.832341E1,4.8991017E0,4.0279243E1,8.200115E1,9.136257E0,4.5212913E0,1.0038613E1,8.0910324E1,5.7149067E0,1.9596523E1,8.753274E0,2.9570137E1],"tree_param":{"num_deleted":"0","num_feature":"17","num_nodes":"37","size_leaf_vector":"1"}},{"base_weights":[-8.04421E-3,5.045532E-1,-6.1363906E-1,7.322977E-1,-1.1297909E0,-8.2108E-1,2.9496294E-1,6.5000665E-1,3.330966E-2,-4.1026663E-2,-4.0257698E-1,-4.528733E-1,-9.6810126E-1,5.7494414E-1,-4.853915E-2,7.02968E-1,6.291508E-2,-3.339175E-2,1.7512372E-2,1.06277026E-1,-7.505677E-1,-1.0230994E0,2.239416E-3,2.4608156E-1,2.9317852E-2,1.6665138E-2,2.7827606E-2,1.9978061E-2,-1.813572E-2,-1.3266086E-2,1.9127468E-2,-1.81052E-3,-2.8683998E-2,-3.7067417E-2,-2.3995157E-2,2.7277915E-2,-3.3658147E-3],"categories":[],"categories_nodes":[],"categories_segments":[],"categories_sizes":[],"default_left":[0,0,0,0,0,0,0,0,0,0,0,0,0,0,0,0,0,0,0,0,0,0,0,0,0,0,0,0,0,0,0,0,0,0,0,0,0],"id":25,"left_children":[1,3,5,7,9,11,13,15,-1,-1,17,19,21,23,-1,25,27,-1,-1,29,31,33,-1,35,-1,-1,-1,-1,-1,-1,-1,-1,-1,-1,-1,-1,-1],"loss_changes":[1.2793426E2,8.3094666E1,3.56136E1,7.944664E0,7.5405045E0,8.317734E0,2.0495422E1,5.221855E0,0E0,0E0,8.156215E0,7.3138704E0,6.3517303E0,5.1317225E0,0E0,4.4205017E0,6.847959E0,0E0,0E0,5.4379325E0,5.9838314E0,4.961342E0,0E0,5.2682242E0,0E0,0E0,0E0,0E0,0E0,0E0,0E0,0E0,0E0,0E0,0E0,0E0,0E0],"parents":[2147483647,0,0,1,1,2,2,3,3,4,4,5,5,6,6,7,7,10,10,11,11,12,12,13,13,15,15,16,16,19,19,20,20,21,21,23,23],"right_children":[2,4,6,8,10,12,14,16,-1,-1,18,20,22,24,-1,26,28,-1,-1,30,32,34,-1,36,-1,-1,-1,-1,-1,-1,-1,-1,-1,-1,-1,-1,-1],"split_conditions":[4.9736476E0,2.4026705E1,1E0,1E0,7.104165E0,5.2097416E0,2.3656693E1,2.1048956E1,3.330966E-2,-4.1026663E-2,8.2E1,5.758221E0,1.77E2,1.6085238E1,-4.853915E-2,8.0763645E0,2.1851584E2,-3.339175E-2,1.7512372E-2,8.034715E0,2.1837917E1,9.819772E0,2.239416E-3,6.8E1,2.9317852E-2,1.6665138E-2,2.7827606E-2,1.9978061E-2,-1.813572E-2,-1.3266086E-2,1.9127468E-2,-1.81052E-3,-2.8683998E-2,-3.7067417E-2,-2.3995157E-2,2.7277915E-2,-3.3658147E-3],"split_indices":[13,12,15,15,4,2,12,12,0,0,0,5,6,12,0,4,8,0,0,13,1,2,0,0,0,0,0,0,0,0,0,0,0,0,0,0,0],"split_type":[0,0,0,0,0,0,0,0,0,0,0,0,0,0,0,0,0,0,0,0,0,0,0,0,0,0,0,0,0,0,0,0,0,0,0,0,0],"sum_hessian":[4.1208398E2,2.2317984E2,1.8890413E2,1.9589342E2,2.7286427E1,1.5379375E2,3.5110374E1,1.679507E2,2.7942713E1,1.7901747E1,9.38468E0,4.390887E1,1.0988488E2,3.0960747E1,4.1496263E0,1.5404991E2,1.3900787E1,5.242965E0,4.141714E0,1.5259819E1,2.8649052E1,1.044188E2,5.466086E0,1.8756884E1,1.2203864E1,1.2052203E2,3.352788E1,7.2377496E0,6.663038E0,7.6522136E0,7.607606E0,8.848455E0,1.9800596E1,3.0301682E1,7.411712E1,6.1409516E0,1.26159315E1],"tree_param":{"num_deleted":"0","num_feature":"17","num_nodes":"37","size_leaf_vector":"1"}},{"base_weights":[3.097057E-2,5.190889E-1,-6.1099213E-1,7.4655664E-1,-1.1607698E0,-9.741714E-1,4.4556245E-1,5.785806E-1,3.3516735E-2,-4.0275544E-2,-5.040566E-1,-1.2473353E0,-3.5240576E-2,6.050324E-1,-1.8436695E-2,4.6289244E-1,3.1831782E-2,-3.1004837E-2,7.1138307E-3,-1.3312904E0,2.6217583E-3,3.065601E-1,-4.0082406E-2,7.282946E-1,-7.5730244E-3,7.3241466E-3,1.956964E-2,-2.4058346E-2,-3.9635632E-2,-9.808803E-3,1.6847793E-2,-3.9051983E-3,2.3708234E-2],"categories":[],"categories_nodes":[],"categories_segments":[],"categories_sizes":[],"default_left":[0,0,0,0,0,0,0,0,0,0,0,0,0,0,0,0,0,0,0,0,0,0,0,0,0,0,0,0,0,0,0,0,0],"id":26,"left_children":[1,3,5,7,9,11,13,15,-1,-1,17,19,21,23,-1,25,-1,-1,-1,27,-1,29,-1,31,-1,-1,-1,-1,-1,-1,-1,-1,-1],"loss_changes":[1.26910965E2,8.793102E1,6.713526E1,1.6567917E1,5.783638E0,3.3391212E1,8.033377E0,1.0331032E1,0E0,0E0,4.4252577E0,1.1380844E1,1.4462175E1,4.2759438E0,0E0,6.2740536E0,0E0,0E0,0E0,5.374527E0,0E0,4.975895E0,0E0,4.335932E0,0E0,0E0,0E0,0E0,0E0,0E0,0E0,0E0,0E0],"parents":[2147483647,0,0,1,1,2,2,3,3,4,4,5,5,6,6,7,7,10,10,11,11,12,12,13,13,15,15,19,19,21,21,23,23],"right_children":[2,4,6,8,10,12,14,16,-1,-1,18,20,22,24,-1,26,-1,-1,-1,28,-1,30,-1,32,-1,-1,-1,-1,-1,-1,-1,-1,-1],"split_conditions":[5.061077E0,2.4026705E1,1E0,1E0,8.05276E0,1E0,9.218167E0,1E0,3.3516735E-2,-4.0275544E-2,5.547967E0,2.8656517E1,2.1720917E1,2.2835552E1,-1.8436695E-2,6.937747E1,3.1831782E-2,-3.1004837E-2,7.1138307E-3,6.6E1,2.6217583E-3,1.21E2,-4.0082406E-2,1.7572897E1,-7.5730244E-3,7.3241466E-3,1.956964E-2,-2.4058346E-2,-3.9635632E-2,-9.808803E-3,1.6847793E-2,-3.9051983E-3,2.3708234E-2],"split_indices":[16,12,14,14,5,15,5,15,0,0,4,12,12,12,0,10,0,0,0,0,0,6,0,1,0,0,0,0,0,0,0,0,0],"split_type":[0,0,0,0,0,0,0,0,0,0,0,0,0,0,0,0,0,0,0,0,0,0,0,0,0,0,0,0,0,0,0,0,0],"sum_hessian":[4.0496786E2,2.300514E2,1.7491644E2,2.0262538E2,2.7426027E1,1.3017259E2,4.474385E1,1.5070451E2,5.192086E1,1.8390999E1,9.0350275E0,1.0083108E2,2.934151E1,3.919348E1,5.5503707E0,1.2613685E2,2.456767E1,4.9265337E0,4.108494E0,9.4902336E1,5.928742E0,2.3726265E1,5.615246E0,3.4399334E1,4.7941456E0,7.206651E1,5.4070335E1,2.1162546E1,7.373979E1,7.581814E0,1.6144451E1,4.8861594E0,2.9513176E1],"tree_param":{"num_deleted":"0","num_feature":"17","num_nodes":"33","size_leaf_vector":"1"}},{"base_weights":[1.1660643E-2,4.5346543E-1,-5.98E-1,6.743254E-1,-1.0496285E0,-9.446746E-1,4.517779E-1,4.8465687E-1,3.3158876E-2,2.448311E-3,-1.2232398E0,-1.1598216E0,-9.467545E-2,7.258883E-1,-2.9345147E-2,3.5314372E-1,3.3409998E-2,-4.025093E-2,8.462485E-4,-1.2149764E0,-5.127405E-4,2.9128972E-1,-4.738104E-2,5.6578404E-1,3.5627104E-2,1.1338911E-2,-5.6542614E-3,-2.1955704E-2,-3.6380805E-2,-1.6268784E-2,1.6717205E-2,8.372829E-3,3.0943157E-2],"categories":[],"categories_nodes":[],"categories_segments":[],"categories_sizes":[],"default_left":[0,0,0,0,0,0,0,0,0,0,0,0,0,0,0,0,0,0,0,0,0,0,0,0,0,0,0,0,0,0,0,0,0],"id":27,"left_children":[1,3,5,7,9,11,13,15,-1,-1,17,19,21,23,-1,25,-1,-1,-1,27,-1,29,-1,31,-1,-1,-1,-1,-1,-1,-1,-1,-1],"loss_changes":[1.1095322E2,7.930406E1,6.2999363E1,2.1563171E1,6.058487E0,2.3793785E1,1.8065E1,1.51422615E1,0E0,0E0,8.608765E0,6.5338745E0,1.6755953E1,3.403799E0,0E0,4.7401733E0,0E0,0E0,0E0,4.9807434E0,0E0,6.1611047E0,0E0,4.2267513E0,0E0,0E0,0E0,0E0,0E0,0E0,0E0,0E0,0E0],"parents":[2147483647,0,0,1,1,2,2,3,3,4,4,5,5,6,6,7,7,10,10,11,11,12,12,13,13,15,15,19,19,21,21,23,23],"right_children":[2,4,6,8,10,12,14,16,-1,-1,18,20,22,24,-1,26,-1,-1,-1,28,-1,30,-1,32,-1,-1,-1,-1,-1,-1,-1,-1,-1],"split_conditions":[5.061077E0,2.3656693E1,1E0,1E0,3.4897804E-1,1E0,2.3132141E1,1E0,3.3158876E-2,2.448311E-3,1.14E2,2.8518103E1,2.1654764E1,1E0,-2.9345147E-2,9.308076E0,3.3409998E-2,-4.025093E-2,8.462485E-4,6.6E1,-5.127405E-4,2.6150737E0,-4.738104E-2,2.6855627E2,3.5627104E-2,1.1338911E-2,-5.6542614E-3,-2.1955704E-2,-3.6380805E-2,-1.6268784E-2,1.6717205E-2,8.372829E-3,3.0943157E-2],"split_indices":[16,12,14,14,16,15,12,15,0,0,7,12,12,15,0,5,0,0,0,0,0,3,0,8,0,0,0,0,0,0,0,0,0],"split_type":[0,0,0,0,0,0,0,0,0,0,0,0,0,0,0,0,0,0,0,0,0,0,0,0,0,0,0,0,0,0,0,0,0],"sum_hessian":[4.1188745E2,2.3882358E2,1.7306389E2,2.0823701E2,3.0586555E1,1.3010164E2,4.2962242E1,1.5459328E2,5.364374E1,4.0444846E0,2.654207E1,1.0381676E2,2.6284891E1,3.6450718E1,6.5115256E0,1.314264E2,2.3166872E1,2.2006212E1,4.535857E0,9.90283E1,4.78846E0,2.1313887E1,4.9710035E0,2.865482E1,7.795898E0,1.1793613E2,1.3490281E1,2.3190405E1,7.583789E1,5.6838546E0,1.5630033E1,1.97916E1,8.863222E0],"tree_param":{"num_deleted":"0","num_feature":"17","num_nodes":"33","size_leaf_vector":"1"}},{"base_weights":[2.7183192E-2,5.5938107E-1,-6.653634E-1,7.77361E-1,-1.0568153E0,-9.8083794E-1,2.1913882E-1,3.336161E-2,-2.2413867E-2,-1.3439672E0,-4.2371545E-3,-1.2193644E0,-3.424232E-2,5.302448E-1,-4.3930087E-2,-5.4421896E-1,3.3869542E-2,-1.0822634E-2,-4.3061286E-2,-1.3467553E0,-3.5528502E-1,7.4247396E-1,-1.2042847E0,3.208887E-2,-5.139707E-1,-3.6059428E-2,3.4575205E-2,-1.9547197E-3,-3.9384805E-2,2.8907336E-2,-3.24599E-2,2.9489446E-2,-2.4557693E-3,-6.4962655E-3,-5.0161425E-2,-3.1010352E-2,3.5311303E-3],"categories":[],"categories_nodes":[],"categories_segments":[],"categories_sizes":[],"default_left":[0,0,0,0,0,0,0,0,0,0,0,0,0,0,0,0,0,0,0,0,0,0,0,0,0,0,0,0,0,0,0,0,0,0,0,0,0],"id":28,"left_children":[1,3,5,7,9,11,13,-1,15,17,-1,19,21,23,-1,25,-1,-1,-1,27,29,31,33,-1,35,-1,-1,-1,-1,-1,-1,-1,-1,-1,-1,-1,-1],"loss_changes":[1.4678658E2,7.935387E1,4.8294212E1,7.152218E1,6.921175E0,2.8801826E1,2.6016388E1,0E0,4.7388165E1,4.6141624E0,0E0,1.1205917E1,2.3369905E1,2.6475481E1,0E0,7.218078E1,0E0,0E0,0E0,1.1650452E1,1.5657614E1,4.4172688E0,6.349224E0,0E0,6.0495844E0,0E0,0E0,0E0,0E0,0E0,0E0,0E0,0E0,0E0,0E0,0E0,0E0],"parents":[2147483647,0,0,1,1,2,2,3,3,4,4,5,5,6,6,8,8,9,9,11,11,12,12,13,13,15,15,19,19,20,20,21,21,22,22,24,24],"right_children":[2,4,6,8,10,12,14,-1,16,18,-1,20,22,24,-1,26,-1,-1,-1,28,30,32,34,-1,36,-1,-1,-1,-1,-1,-1,-1,-1,-1,-1,-1,-1],"split_conditions":[5.021272E0,2.4026705E1,1E0,5.1228065E0,3.223119E2,1E0,2.3215715E1,3.336161E-2,1E0,1.7312828E2,-4.2371545E-3,2.6767176E1,5.1893506E0,5.0020733E0,-4.3930087E-2,1E0,3.3869542E-2,-1.0822634E-2,-4.3061286E-2,5.667001E-1,2.3497269E1,2.1314457E1,1.9176474E2,3.208887E-2,7.4955854E0,-3.6059428E-2,3.4575205E-2,-1.9547197E-3,-3.9384805E-2,2.8907336E-2,-3.24599E-2,2.9489446E-2,-2.4557693E-3,-6.4962655E-3,-5.0161425E-2,-3.1010352E-2,3.5311303E-3],"split_indices":[13,12,14,16,11,15,12,0,14,8,0,12,16,16,0,15,0,0,0,4,1,12,8,0,5,0,0,0,0,0,0,0,0,0,0,0,0],"split_type":[0,0,0,0,0,0,0,0,0,0,0,0,0,0,0,0,0,0,0,0,0,0,0,0,0,0,0,0,0,0,0,0,0,0,0,0,0],"sum_hessian":[3.9821707E2,2.2517886E2,1.7303821E2,1.9842708E2,2.6751791E1,1.27544754E2,4.549346E1,1.26909096E2,7.151798E1,2.027808E1,6.4737105E0,1.0186949E2,2.567526E1,3.891441E1,6.5790515E0,5.0688477E1,2.0829506E1,4.130221E0,1.614786E1,8.877077E1,1.3098728E1,1.5435806E1,1.0239455E1,2.3970161E1,1.4944248E1,3.5425495E1,1.526298E1,6.6355453E0,8.2135216E1,4.8662496E0,8.232479E0,1.0928914E1,4.506892E0,4.101691E0,6.137764E0,7.560997E0,7.383251E0],"tree_param":{"num_deleted":"0","num_feature":"17","num_nodes":"37","size_leaf_vector":"1"}},{"base_weights":[-3.1358834E-2,4.710273E-1,-6.3522094E-1,9.7947365E-1,-3.0890805E-1,-9.7413415E-1,2.8852275E-1,2.833007E-2,6.086923E-1,-8.1687623E-1,2.7447673E-2,-1.1821048E0,-1.5583032E-1,2.4965884E-2,-4.9928716E-1,2.7032712E-2,-2.7642883E-3,-1.3644252E0,1.850067E-2,-2.9707444E-3,-1.2365515E0,7.669319E-1,-1.2927034E0,-1.0607167E0,2.887179E-2,-4.1123554E-2,1.8208267E-3,-1.2955585E-2,-3.5854287E-2,3.458674E-3,3.11966E-2,-1.6678808E-2,-4.9899578E-2,-1.7424645E-2,-5.0649613E-2],"categories":[],"categories_nodes":[],"categories_segments":[],"categories_sizes":[],"default_left":[0,0,0,0,0,0,0,0,0,0,0,0,0,0,0,0,0,0,0,0,0,0,0,0,0,0,0,0,0,0,0,0,0,0,0],"id":29,"left_children":[1,3,5,7,9,11,13,-1,15,17,-1,19,21,-1,23,-1,-1,25,-1,-1,27,29,31,33,-1,-1,-1,-1,-1,-1,-1,-1,-1,-1,-1],"loss_changes":[1.194484E2,8.5236664E1,5.5985153E1,3.0418472E0,5.6865906E1,2.2259445E1,2.3854244E1,0E0,5.2244864E0,5.026212E1,0E0,6.089569E0,2.7855106E1,0E0,1.8749928E1,0E0,0E0,9.5896225E0,0E0,0E0,6.2610474E0,3.5727463E0,4.3697567E0,5.2728653E0,0E0,0E0,0E0,0E0,0E0,0E0,0E0,0E0,0E0,0E0,0E0],"parents":[2147483647,0,0,1,1,2,2,3,3,4,4,5,5,6,6,8,8,9,9,11,11,12,12,14,14,17,17,20,20,21,21,22,22,23,23],"right_children":[2,4,6,8,10,12,14,-1,16,18,-1,20,22,-1,24,-1,-1,26,-1,-1,28,30,32,34,-1,-1,-1,-1,-1,-1,-1,-1,-1,-1,-1],"split_conditions":[4.9736476E0,5.061077E0,1E0,4.424642E0,1E0,1E0,5.0020733E0,2.833007E-2,5.3996153E0,1E0,2.7447673E-2,1.5828333E1,5.026306E0,2.4965884E-2,1E0,2.7032712E-2,-2.7642883E-3,9.334937E0,1.850067E-2,-2.9707444E-3,2.6227854E1,5.4730206E1,2.0323001E2,2.4037639E2,2.887179E-2,-4.1123554E-2,1.8208267E-3,-1.2955585E-2,-3.5854287E-2,3.458674E-3,3.11966E-2,-1.6678808E-2,-4.9899578E-2,-1.7424645E-2,-5.0649613E-2],"split_indices":[13,16,14,16,14,15,16,0,3,15,0,1,16,0,15,0,0,4,0,0,10,10,8,11,0,0,0,0,0,0,0,0,0,0,0],"split_type":[0,0,0,0,0,0,0,0,0,0,0,0,0,0,0,0,0,0,0,0,0,0,0,0,0,0,0,0,0,0,0,0,0,0,0],"sum_hessian":[3.9369562E2,2.1490706E2,1.7878857E2,1.3009311E2,8.481395E1,1.3079863E2,4.798994E1,1.1108637E2,1.9006735E1,6.124077E1,2.357318E1,1.04285614E2,2.6513023E1,2.6655643E1,2.1334295E1,1.2306333E1,6.700402E0,4.4848152E1,1.6392616E1,5.040201E0,9.9245415E1,1.4638233E1,1.1874789E1,1.5698384E1,5.635912E0,4.0611828E1,4.236325E0,9.809531E0,8.943588E1,5.4778976E0,9.160336E0,5.3022785E0,6.5725107E0,1.0339505E1,5.3588786E0],"tree_param":{"num_deleted":"0","num_feature":"17","num_nodes":"35","size_leaf_vector":"1"}},{"base_weights":[2.3876183E-2,4.450731E-1,-5.83668E-1,9.4196004E-1,-2.3357265E-1,-8.8840175E-1,2.9303095E-1,3.2570288E-2,-8.721526E-1,-7.618142E-1,8.829172E-1,-1.1173964E0,-8.30187E-3,9.698236E-1,-4.329093E-1,-3.6905784E-2,6.1078602E-3,-1.1741118E0,6.6271085E-1,3.302756E-2,-3.2106746E-2,-1.2175276E0,-1.129967E-1,6.4440876E-1,-9.102675E-1,3.4082778E-2,-6.0725627E-3,-9.826477E-1,2.7927479E-2,8.24244E-3,-3.533404E-2,5.107772E-3,3.3083554E-2,-1.3104176E-2,-3.643338E-2,1.7108066E-2,-2.4290964E-2,3.240374E-2,-1.4203146E-2,-4.8447497E-2,1.2225539E-2,-1.1996618E-2,-4.8706837E-2],"categories":[],"categories_nodes":[],"categories_segments":[],"categories_sizes":[],"default_left":[0,0,0,0,0,0,0,0,0,0,0,0,0,0,0,0,0,0,0,0,0,0,0,0,0,0,0,0,0,0,0,0,0,0,0,0,0,0,0,0,0,0,0],"id":30,"left_children":[1,3,5,7,9,11,13,-1,15,17,19,21,23,25,27,-1,-1,29,31,-1,-1,33,35,37,39,-1,-1,41,-1,-1,-1,-1,-1,-1,-1,-1,-1,-1,-1,-1,-1,-1,-1],"loss_changes":[1.0036954E2,7.811508E1,4.2908493E1,6.2347656E1,5.7768856E1,2.4017769E1,2.036702E1,0E0,8.862037E0,3.906527E1,2.1645943E1,9.5080185E0,1.4509777E1,7.293909E0,1.6087816E1,0E0,0E0,9.64563E0,3.9309268E0,0E0,0E0,7.7968216E0,4.997988E0,9.164141E0,1.2304122E1,0E0,0E0,6.360813E0,0E0,0E0,0E0,0E0,0E0,0E0,0E0,0E0,0E0,0E0,0E0,0E0,0E0,0E0,0E0],"parents":[2147483647,0,0,1,1,2,2,3,3,4,4,5,5,6,6,8,8,9,9,10,10,11,11,12,12,13,13,14,14,17,17,18,18,21,21,22,22,23,23,24,24,27,27],"right_children":[2,4,6,8,10,12,14,-1,16,18,20,22,24,26,28,-1,-1,30,32,-1,-1,34,36,38,40,-1,-1,42,-1,-1,-1,-1,-1,-1,-1,-1,-1,-1,-1,-1,-1,-1,-1],"split_conditions":[5.0783296E0,5.021272E0,1E0,2.4026705E1,1E0,1E0,4.903379E0,3.2570288E-2,1E0,1E0,2.2835552E1,8.953681E0,5.021272E0,2.0625685E1,1E0,-3.6905784E-2,6.1078602E-3,6.215359E1,2.9889362E1,3.302756E-2,-3.2106746E-2,2.8938066E1,3.1336846E0,2.0749573E1,8.867126E1,3.4082778E-2,-6.0725627E-3,5.547967E0,2.7927479E-2,8.24244E-3,-3.533404E-2,5.107772E-3,3.3083554E-2,-1.3104176E-2,-3.643338E-2,1.7108066E-2,-2.4290964E-2,3.240374E-2,-1.4203146E-2,-4.8447497E-2,1.2225539E-2,-1.1996618E-2,-4.8706837E-2],"split_indices":[16,13,14,12,14,15,13,0,14,15,12,4,13,12,15,0,0,11,1,0,0,10,13,12,10,0,0,4,0,0,0,0,0,0,0,0,0,0,0,0,0,0,0],"split_type":[0,0,0,0,0,0,0,0,0,0,0,0,0,0,0,0,0,0,0,0,0,0,0,0,0,0,0,0,0,0,0,0,0,0,0,0,0,0,0,0,0,0,0],"sum_hessian":[3.921875E2,2.3161758E2,1.6056993E2,1.3371042E2,9.7907166E1,1.19153E2,4.141693E1,1.17129776E2,1.6580633E1,6.646649E1,3.144067E1,9.4547165E1,2.4605835E1,2.1430511E1,1.9986418E1,1.1484588E1,5.0960455E0,5.1550022E1,1.4916471E1,2.7083754E1,4.3569174E0,8.597209E1,8.57507E0,1.4278745E1,1.0327091E1,1.7301548E1,4.128964E0,1.4526595E1,5.4598227E0,4.0628595E0,4.7487164E1,8.054778E0,6.8616924E0,1.2382294E1,7.35898E1,4.3975854E0,4.1774845E0,9.714595E0,4.5641494E0,6.2862844E0,4.040807E0,8.728594E0,5.798002E0],"tree_param":{"num_deleted":"0","num_feature":"17","num_nodes":"43","size_leaf_vector":"1"}},{"base_weights":[6.074574E-2,5.0844926E-1,-5.715053E-1,9.590433E-1,-2.415901E-1,-7.273454E-1,1.0904842E-1,1.1758683E0,-3.777358E-2,-6.163253E-1,8.737904E-1,-6.236099E-1,-3.7618287E-2,3.521485E-1,-3.5885E-2,3.2744344E-2,1.109347E-2,-3.555275E-2,-4.1851556E-1,3.153974E-2,-9.05763E-3,-5.4518193E-1,-3.8958464E-2,2.8820299E-2,-2.0884794E-1,-8.618826E-4,-2.6303494E-2,-3.91731E-3,-1.9818941E-2,-1.9203471E-2,1.4980756E-2],"categories":[],"categories_nodes":[],"categories_segments":[],"categories_sizes":[],"default_left":[0,0,0,0,0,0,0,0,0,0,0,0,0,0,0,0,0,0,0,0,0,0,0,0,0,0,0,0,0,0,0],"id":31,"left_children":[1,3,5,7,9,11,13,15,-1,17,19,21,-1,23,-1,-1,-1,-1,25,-1,-1,27,-1,-1,29,-1,-1,-1,-1,-1,-1],"loss_changes":[1.1125965E2,7.777403E1,1.7283314E1,7.326459E1,3.6113842E1,9.023567E0,1.0569402E1,2.960785E0,0E0,8.844854E0,7.54039E0,7.2649384E0,0E0,1.0333468E1,0E0,0E0,0E0,0E0,1.0699159E1,0E0,0E0,7.7201595E0,0E0,0E0,5.504676E0,0E0,0E0,0E0,0E0,0E0,0E0],"parents":[2147483647,0,0,1,1,2,2,3,3,4,4,5,5,6,6,7,7,9,9,10,10,11,11,13,13,18,18,21,21,24,24],"right_children":[2,4,6,8,10,12,14,16,-1,18,20,22,-1,24,-1,-1,-1,-1,26,-1,-1,28,-1,-1,30,-1,-1,-1,-1,-1,-1],"split_conditions":[5.2428317E0,5.1228065E0,1E0,2.4026705E1,1E0,8.480841E0,2.3361107E1,4.9736476E0,-3.777358E-2,2.1530612E0,2.200686E1,9.521027E0,-3.7618287E-2,4.7148366E0,-3.5885E-2,3.2744344E-2,1.109347E-2,-3.555275E-2,9.866852E0,3.153974E-2,-9.05763E-3,5.9003406E0,-3.8958464E-2,2.8820299E-2,8.645073E0,-8.618826E-4,-2.6303494E-2,-3.91731E-3,-1.9818941E-2,-1.9203471E-2,1.4980756E-2],"split_indices":[13,16,15,12,15,16,12,13,0,3,12,5,0,16,0,0,0,0,2,0,0,2,0,0,13,0,0,0,0,0,0],"split_type":[0,0,0,0,0,0,0,0,0,0,0,0,0,0,0,0,0,0,0,0,0,0,0,0,0,0,0,0,0,0,0],"sum_hessian":[3.9301788E2,2.300916E2,1.6292628E2,1.4373541E2,8.635619E1,1.325681E2,3.0358181E1,1.3160037E2,1.2135038E1,6.464606E1,2.1710135E1,1.14532776E2,1.8035332E1,2.5959995E1,4.398185E0,1.2673329E2,4.8670774E0,1.4340729E1,5.030533E1,1.7539038E1,4.1710963E0,1.04457504E2,1.0075268E1,1.1462189E1,1.44978075E1,2.9540266E1,2.076506E1,3.2906796E1,7.155071E1,8.760659E0,5.7371483E0],"tree_param":{"num_deleted":"0","num_feature":"17","num_nodes":"31","size_leaf_vector":"1"}},{"base_weights":[2.2349618E-2,5.033698E-1,-5.91703E-1,7.433846E-1,-1.0507886E0,-7.6902664E-1,1.2779E-1,3.2571655E-2,-7.943213E-2,-3.8924363E-2,-2.4762487E-3,-5.7682544E-1,-1.146761E0,4.653381E-1,-4.4131476E-2,-4.4915667E-1,3.3196807E-2,-7.003042E-1,3.5945928E-1,-6.7758685E-1,-3.7850287E-2,2.9758396E-2,-1.4966466E-1,-8.114334E-3,-3.4111105E-2,-1.3597195E-2,-3.4866013E-2,-9.516922E-3,3.6614783E-2,-6.488162E-3,-3.9316684E-2,1.940082E-2,-2.0302603E-2],"categories":[],"categories_nodes":[],"categories_segments":[],"categories_sizes":[],"default_left":[0,0,0,0,0,0,0,0,0,0,0,0,0,0,0,0,0,0,0,0,0,0,0,0,0,0,0,0,0,0,0,0,0],"id":32,"left_children":[1,3,5,7,9,11,13,-1,15,-1,-1,17,19,21,-1,23,-1,25,27,29,-1,-1,31,-1,-1,-1,-1,-1,-1,-1,-1,-1,-1],"loss_changes":[1.12585884E2,7.974364E1,2.1363365E1,6.9401855E1,1.0480932E1,9.739021E0,1.9605911E1,0E0,3.1765728E1,0E0,0E0,1.03025E1,5.2166367E0,1.07704315E1,0E0,6.231139E0,0E0,9.155533E0,7.29849E0,5.2720094E0,0E0,0E0,7.2792153E0,0E0,0E0,0E0,0E0,0E0,0E0,0E0,0E0,0E0,0E0],"parents":[2147483647,0,0,1,1,2,2,3,3,4,4,5,5,6,6,8,8,11,11,12,12,13,13,15,15,17,17,18,18,19,19,22,22],"right_children":[2,4,6,8,10,12,14,-1,16,-1,-1,18,20,22,-1,24,-1,26,28,30,-1,-1,32,-1,-1,-1,-1,-1,-1,-1,-1,-1,-1],"split_conditions":[4.9736476E0,2.3789999E1,1E0,5.1228065E0,7.2325687E0,6.411932E0,2.3656693E1,3.2571655E-2,1E0,-3.8924363E-2,-2.4762487E-3,5.88632E0,2.4951992E0,4.878135E0,-4.4131476E-2,3.4150322E1,3.3196807E-2,1.5305219E2,9.9E1,7.7447996E0,-3.7850287E-2,2.9758396E-2,1.923563E2,-8.114334E-3,-3.4111105E-2,-1.3597195E-2,-3.4866013E-2,-9.516922E-3,3.6614783E-2,-6.488162E-3,-3.9316684E-2,1.940082E-2,-2.0302603E-2],"split_indices":[13,12,15,16,4,16,12,0,15,0,0,16,4,16,0,1,0,9,7,5,0,0,8,0,0,0,0,0,0,0,0,0,0],"split_type":[0,0,0,0,0,0,0,0,0,0,0,0,0,0,0,0,0,0,0,0,0,0,0,0,0,0,0,0,0,0,0,0,0],"sum_hessian":[3.811262E2,2.1371527E2,1.6741092E2,1.8513474E2,2.8580536E1,1.3430838E2,3.3102543E1,1.1915695E2,6.597778E1,2.0436329E1,8.144206E0,8.9049E1,4.5259377E1,2.7768108E1,5.3344345E0,5.139064E1,1.4587143E1,7.8677925E1,1.0371077E1,1.561303E1,2.9646347E1,1.3708697E1,1.4059411E1,4.3332516E1,8.058125E0,5.8625313E1,2.005261E1,6.0436783E0,4.3273983E0,9.960737E0,5.6522927E0,5.7479377E0,8.311473E0],"tree_param":{"num_deleted":"0","num_feature":"17","num_nodes":"33","size_leaf_vector":"1"}},{"base_weights":[2.397934E-3,4.8146993E-1,-5.6491935E-1,7.236931E-1,-9.682629E-1,-8.970099E-1,2.968206E-1,3.3081748E-2,-1.0891845E-1,-1.3014057E0,-2.5427058E-1,-1.082963E0,-9.733782E-2,9.5460635E-1,-6.513289E-1,-6.7580605E-1,3.297228E-2,-1.0848831E-2,-4.1783385E-2,-2.8927721E-2,1.8523829E-2,-5.6131446E-1,-1.2059215E0,5.7841164E-1,-1.0303009E0,3.232203E-2,-2.0297766E-3,-1.2543981E0,3.6089264E-2,-3.3489823E-2,3.0231649E-2,2.420512E-2,-2.6383974E-2,-1.2865955E-3,-3.495998E-2,2.627509E-2,-4.0121893E-3,-2.7760474E-3,-4.6009846E-2,-1.6220795E-2,-4.7928113E-2],"categories":[],"categories_nodes":[],"categories_segments":[],"categories_sizes":[],"default_left":[0,0,0,0,0,0,0,0,0,0,0,0,0,0,0,0,0,0,0,0,0,0,0,0,0,0,0,0,0,0,0,0,0,0,0,0,0,0,0,0,0],"id":33,"left_children":[1,3,5,7,9,11,13,-1,15,17,19,21,23,25,27,29,-1,-1,-1,-1,-1,31,33,35,37,-1,-1,39,-1,-1,-1,-1,-1,-1,-1,-1,-1,-1,-1,-1,-1],"loss_changes":[1.014993E2,7.111463E1,4.893553E1,7.1364655E1,6.890129E0,1.8350998E1,2.9685308E1,0E0,4.8470093E1,4.205864E0,7.0328455E0,6.409111E0,1.4706425E1,6.8019466E0,2.3314217E1,4.5099876E1,0E0,0E0,0E0,0E0,0E0,1.1408871E1,7.59301E0,3.8219275E0,6.0278873E0,0E0,0E0,4.9905434E0,0E0,0E0,0E0,0E0,0E0,0E0,0E0,0E0,0E0,0E0,0E0,0E0,0E0],"parents":[2147483647,0,0,1,1,2,2,3,3,4,4,5,5,6,6,8,8,9,9,10,10,11,11,12,12,13,13,14,14,15,15,21,21,22,22,23,23,24,24,27,27],"right_children":[2,4,6,8,10,12,14,-1,16,18,20,22,24,26,28,30,-1,-1,-1,-1,-1,32,34,36,38,-1,-1,40,-1,-1,-1,-1,-1,-1,-1,-1,-1,-1,-1,-1,-1],"split_conditions":[4.9736476E0,2.4026705E1,1E0,5.0783296E0,8.3E1,1E0,5.0020733E0,3.3081748E-2,1E0,1.3546327E0,6.069316E0,6.6E1,5.026306E0,2.200686E1,1E0,1E0,3.297228E-2,-1.0848831E-2,-4.1783385E-2,-2.8927721E-2,1.8523829E-2,1.8755428E1,5.667001E-1,1.6981203E1,1.0245684E2,3.232203E-2,-2.0297766E-3,7.1E1,3.6089264E-2,-3.3489823E-2,3.0231649E-2,2.420512E-2,-2.6383974E-2,-1.2865955E-3,-3.495998E-2,2.627509E-2,-4.0121893E-3,-2.7760474E-3,-4.6009846E-2,-1.6220795E-2,-4.7928113E-2],"split_indices":[13,12,14,16,0,15,16,0,14,16,4,0,16,12,15,15,0,0,0,0,0,1,4,12,9,0,0,0,0,0,0,0,0,0,0,0,0,0,0,0,0],"split_type":[0,0,0,0,0,0,0,0,0,0,0,0,0,0,0,0,0,0,0,0,0,0,0,0,0,0,0,0,0,0,0,0,0,0,0,0,0,0,0,0,0],"sum_hessian":[3.7341275E2,2.0245357E2,1.7095917E2,1.7347867E2,2.89749E1,1.2340248E2,4.7556694E1,1.0887319E2,6.460547E1,1.9745281E1,9.229619E0,1.0011492E2,2.328756E1,2.8077549E1,1.9479145E1,4.5229168E1,1.9376303E1,4.113857E0,1.5631424E1,4.94514E0,4.2844796E0,1.9118357E1,8.099657E1,1.3509934E1,9.777624E0,2.2853956E1,5.223594E0,1.4936544E1,4.5425997E0,3.449488E1,1.0734289E1,4.202644E0,1.4915712E1,5.2892246E0,7.5707344E1,8.794693E0,4.715241E0,4.0848756E0,5.692749E0,6.5432034E0,8.393341E0],"tree_param":{"num_deleted":"0","num_feature":"17","num_nodes":"41","size_leaf_vector":"1"}},{"base_weights":[4.78086E-2,5.218168E-1,-5.611471E-1,7.419005E-1,-9.851813E-1,-8.65294E-1,2.0114897E-1,3.2086607E-2,-5.0479703E-2,-3.3682473E-2,-4.5659607E-3,-2.4457954E-1,-9.921633E-1,8.6859494E-1,-7.17352E-1,-5.770106E-1,3.286381E-2,2.7384496E-1,-2.7939802E-2,-5.512845E-1,-1.1540616E0,3.45614E-2,-3.0782402E-2,-1.0711399E0,1.1544452E-2,-2.3696424E-2,-2.1321177E-3,2.7085185E-2,-2.356047E-2,-2.786838E-2,3.2496287E-3,-2.3027278E-2,-3.5829637E-2,-3.9931178E-2,-5.6118136E-3],"categories":[],"categories_nodes":[],"categories_segments":[],"categories_sizes":[],"default_left":[0,0,0,0,0,0,0,0,0,0,0,0,0,0,0,0,0,0,0,0,0,0,0,0,0,0,0,0,0,0,0,0,0,0,0],"id":34,"left_children":[1,3,5,7,9,11,13,-1,15,-1,-1,17,19,21,23,25,-1,27,-1,29,31,-1,-1,33,-1,-1,-1,-1,-1,-1,-1,-1,-1,-1,-1],"loss_changes":[1.0708325E2,6.920108E1,3.7650574E1,6.3345444E1,5.528267E0,9.135651E0,2.8412659E1,0E0,4.3096523E1,0E0,0E0,8.021167E0,6.8655396E0,2.1709332E1,7.8926535E0,6.7407837E0,0E0,9.827109E0,0E0,8.254609E0,3.535736E0,0E0,0E0,5.1296444E0,0E0,0E0,0E0,0E0,0E0,0E0,0E0,0E0,0E0,0E0,0E0],"parents":[2147483647,0,0,1,1,2,2,3,3,4,4,5,5,6,6,8,8,11,11,12,12,13,13,14,14,15,15,17,17,19,19,20,20,23,23],"right_children":[2,4,6,8,10,12,14,-1,16,-1,-1,18,20,22,24,26,-1,28,-1,30,32,-1,-1,34,-1,-1,-1,-1,-1,-1,-1,-1,-1,-1,-1],"split_conditions":[5.021272E0,2.4026705E1,1E0,5.1228065E0,1E0,6.5E1,5.0020733E0,3.2086607E-2,1E0,-3.3682473E-2,-4.5659607E-3,1.43E2,5.2525644E0,2.2492262E1,1.7166588E2,8.515631E0,3.286381E-2,5.71461E0,-2.7939802E-2,3.5104084E0,2.3497269E1,3.45614E-2,-3.0782402E-2,3.250457E1,1.1544452E-2,-2.3696424E-2,-2.1321177E-3,2.7085185E-2,-2.356047E-2,-2.786838E-2,3.2496287E-3,-2.3027278E-2,-3.5829637E-2,-3.9931178E-2,-5.6118136E-3],"split_indices":[13,12,14,16,14,0,16,0,14,0,0,6,2,12,9,16,0,3,0,2,1,0,0,1,0,0,0,0,0,0,0,0,0,0,0],"split_type":[0,0,0,0,0,0,0,0,0,0,0,0,0,0,0,0,0,0,0,0,0,0,0,0,0,0,0,0,0,0,0,0,0,0,0],"sum_hessian":[3.7093884E2,2.0858228E2,1.6235655E2,1.820114E2,2.6570883E1,1.1605091E2,4.6305637E1,1.1710044E2,6.491095E1,2.0250174E1,6.32071E0,1.9704569E1,9.6346344E1,2.681854E1,1.9487097E1,4.5789593E1,1.912136E1,1.1868245E1,7.8363237E0,2.5901327E1,7.044502E1,2.232488E1,4.4936595E0,1.4879803E1,4.607295E0,2.8749424E1,1.7040167E1,7.266106E0,4.602139E0,1.5164849E1,1.0736477E1,2.467612E1,4.5768898E1,1.0174152E1,4.70565E0],"tree_param":{"num_deleted":"0","num_feature":"17","num_nodes":"35","size_leaf_vector":"1"}},{"base_weights":[1.5965087E-2,4.8563424E-1,-5.628417E-1,9.1946256E-1,-2.1998219E-1,-8.3201E-1,2.0996198E-1,3.1165479E-2,-7.493239E-1,-7.30768E-1,2.968712E-2,-1.0339465E0,-8.043958E-2,8.6145043E-1,-6.563018E-1,-3.338171E-2,3.2494606E-3,-1.2000289E0,6.9175494E-1,-5.3473995E-3,-1.1032565E0,6.609572E-1,-1.099294E0,3.1654913E-2,-1.876346E-2,-1.3328516E0,3.132667E-2,-3.9967794E-2,3.154033E-3,3.1739384E-2,-1.2860732E-2,-3.225799E-2,-7.7605145E-3,3.541021E-2,5.857346E-3,-4.5496922E-2,-5.5910232E-3,-4.862501E-2,-7.623445E-3],"categories":[],"categories_nodes":[],"categories_segments":[],"categories_sizes":[],"default_left":[0,0,0,0,0,0,0,0,0,0,0,0,0,0,0,0,0,0,0,0,0,0,0,0,0,0,0,0,0,0,0,0,0,0,0,0,0,0,0],"id":35,"left_children":[1,3,5,7,9,11,13,-1,15,17,-1,19,21,23,25,-1,-1,27,29,-1,31,33,35,-1,-1,37,-1,-1,-1,-1,-1,-1,-1,-1,-1,-1,-1,-1,-1],"loss_changes":[1.02989136E2,6.402571E1,3.530501E1,4.923104E1,5.3419216E1,1.9101776E1,2.4761967E1,0E0,6.4859095E0,3.8297897E1,0E0,5.7519455E0,2.0167625E1,1.1820284E1,2.3089586E1,0E0,0E0,1.539386E1,7.916382E0,0E0,6.2943115E0,4.4162397E0,5.7739477E0,0E0,0E0,6.5867443E0,0E0,0E0,0E0,0E0,0E0,0E0,0E0,0E0,0E0,0E0,0E0,0E0,0E0],"parents":[2147483647,0,0,1,1,2,2,3,3,4,4,5,5,6,6,8,8,9,9,11,11,12,12,13,13,14,14,17,17,18,18,20,20,21,21,22,22,25,25],"right_children":[2,4,6,8,10,12,14,-1,16,18,-1,20,22,24,26,-1,-1,28,30,-1,32,34,36,-1,-1,38,-1,-1,-1,-1,-1,-1,-1,-1,-1,-1,-1,-1,-1],"split_conditions":[4.9736476E0,5.061077E0,1E0,2.3789999E1,1E0,1E0,5.0020733E0,3.1165479E-2,1E0,1E0,2.968712E-2,5.667001E-1,5.1893506E0,2.2492262E1,1E0,-3.338171E-2,3.2494606E-3,8.456602E0,2.0749573E1,-5.3473995E-3,2.7954159E1,8.509701E0,8.402531E0,3.1654913E-2,-1.876346E-2,2.2492262E1,3.132667E-2,-3.9967794E-2,3.154033E-3,3.1739384E-2,-1.2860732E-2,-3.225799E-2,-7.7605145E-3,3.541021E-2,5.857346E-3,-4.5496922E-2,-5.5910232E-3,-4.862501E-2,-7.623445E-3],"split_indices":[13,16,14,12,14,15,16,0,14,15,0,4,16,12,15,0,0,4,12,0,12,12,13,0,0,12,0,0,0,0,0,0,0,0,0,0,0,0,0],"split_type":[0,0,0,0,0,0,0,0,0,0,0,0,0,0,0,0,0,0,0,0,0,0,0,0,0,0,0,0,0,0,0,0,0,0,0,0,0,0,0],"sum_hessian":[3.7880807E2,2.0912123E2,1.6968686E2,1.2949733E2,7.96239E1,1.2585121E2,4.3835644E1,1.13955124E2,1.5542208E1,5.7326805E1,2.2297096E1,9.919207E1,2.6659142E1,2.5019451E1,1.8816193E1,1.0010689E1,5.531519E0,4.310915E1,1.4217652E1,7.590668E0,9.16014E1,1.543474E1,1.1224401E1,2.0929005E1,4.0904465E0,1.3699241E1,5.1169515E0,3.574337E1,7.3657827E0,1.0090646E1,4.127007E0,8.304813E1,8.553278E0,6.30318E0,9.131559E0,6.816857E0,4.407544E0,9.541412E0,4.157829E0],"tree_param":{"num_deleted":"0","num_feature":"17","num_nodes":"39","size_leaf_vector":"1"}},{"base_weights":[1.5259942E-2,4.7138393E-1,-5.087646E-1,9.770435E-1,-1.2456543E-1,-7.989634E-1,2.546686E-1,3.2266974E-2,-6.739061E-1,-5.6210804E-1,9.7096103E-1,-9.7989357E-1,-9.797117E-2,7.930723E-1,-4.0365905E-1,-3.987375E-2,7.876575E-3,-1.0096313E0,7.1955556E-1,3.2033075E-2,-2.6088802E-3,-7.596596E-1,-3.9511383E-2,7.1094966E-1,-1.1097515E0,3.112671E-2,-1.7513422E-2,-1.0486556E0,3.17658E-2,6.4552403E-3,-3.3036303E-2,3.2011583E-2,-1.5947774E-2,7.0164492E-3,-2.5530897E-2,2.8412478E-2,-2.2016412E-3,-4.561672E-2,-3.2560648E-3,-4.0071405E-2,1.4038567E-3],"categories":[],"categories_nodes":[],"categories_segments":[],"categories_sizes":[],"default_left":[0,0,0,0,0,0,0,0,0,0,0,0,0,0,0,0,0,0,0,0,0,0,0,0,0,0,0,0,0,0,0,0,0,0,0,0,0,0,0,0,0],"id":36,"left_children":[1,3,5,7,9,11,13,-1,15,17,19,21,23,25,27,-1,-1,29,31,-1,-1,33,-1,35,37,-1,-1,39,-1,-1,-1,-1,-1,-1,-1,-1,-1,-1,-1,-1,-1],"loss_changes":[8.611713E1,5.804969E1,3.7150223E1,3.6258926E1,4.2402264E1,1.5406921E1,1.6380207E1,0E0,9.040565E0,3.6269997E1,5.6091576E0,1.0068077E1,2.0433826E1,1.2903039E1,2.1123293E1,0E0,0E0,1.2068165E1,9.826398E0,0E0,0E0,1.2103386E1,0E0,3.6817636E0,6.2470274E0,0E0,0E0,6.924961E0,0E0,0E0,0E0,0E0,0E0,0E0,0E0,0E0,0E0,0E0,0E0,0E0,0E0],"parents":[2147483647,0,0,1,1,2,2,3,3,4,4,5,5,6,6,8,8,9,9,10,10,11,11,12,12,13,13,14,14,17,17,18,18,21,21,23,23,24,24,27,27],"right_children":[2,4,6,8,10,12,14,-1,16,18,20,22,24,26,28,-1,-1,30,32,-1,-1,34,-1,36,38,-1,-1,40,-1,-1,-1,-1,-1,-1,-1,-1,-1,-1,-1,-1,-1],"split_conditions":[4.9736476E0,4.5872965E0,1E0,2.4026705E1,1E0,1E0,4.851018E0,3.2266974E-2,9.8E1,1E0,2.1314457E1,8E1,5.026306E0,2.200686E1,1E0,-3.987375E-2,7.876575E-3,5.0783296E0,2.1720917E1,3.2033075E-2,-2.6088802E-3,1.7811506E1,-3.9511383E-2,1.52E2,8.402531E0,3.112671E-2,-1.7513422E-2,1.5545955E2,3.17658E-2,6.4552403E-3,-3.3036303E-2,3.2011583E-2,-1.5947774E-2,7.0164492E-3,-2.5530897E-2,2.8412478E-2,-2.2016412E-3,-4.561672E-2,-3.2560648E-3,-4.0071405E-2,1.4038567E-3],"split_indices":[13,16,14,12,14,15,16,0,7,15,12,0,16,12,15,0,0,16,12,0,0,1,0,6,13,0,0,9,0,0,0,0,0,0,0,0,0,0,0,0,0],"split_type":[0,0,0,0,0,0,0,0,0,0,0,0,0,0,0,0,0,0,0,0,0,0,0,0,0,0,0,0,0,0,0,0,0,0,0,0,0,0,0,0,0],"sum_hessian":[3.6025177E2,1.9260533E2,1.6764644E2,1.04188805E2,8.841653E1,1.2147138E2,4.6175053E1,9.2403824E1,1.1784983E1,6.3189213E1,2.5227312E1,9.654461E1,2.492677E1,2.539884E1,2.077621E1,6.456758E0,5.328225E0,4.6838673E1,1.635054E1,2.1107788E1,4.1195235E0,6.5973976E1,3.0570639E1,1.3855375E1,1.1071395E1,2.03992E1,4.9996395E0,1.4739008E1,6.037203E0,6.64984E0,4.0188835E1,1.210305E1,4.24749E0,9.916501E0,5.6057472E1,9.733359E0,4.122016E0,7.0198627E0,4.0515323E0,1.0618159E1,4.120849E0],"tree_param":{"num_deleted":"0","num_feature":"17","num_nodes":"41","size_leaf_vector":"1"}},{"base_weights":[-1.3976364E-2,4.3840137E-1,-5.387122E-1,2.9159617E-1,2.4446977E-2,-8.467754E-1,2.2580682E-1,2.1480794E-1,8.4052986E-1,-1.0673217E0,3.6934827E-2,-5.051761E-1,4.540452E-1,1.2600572E-1,1.9474668E-2,3.1391796E-2,1.3047745E-3,-9.204126E-1,-3.914339E-2,-6.2656873E-3,2.7913695E-2,2.0383084E-3,-4.101672E-2,2.9115677E-2,2.3173523E-1,8.058213E-3,-4.0379213E-3,-1.3862112E-2,-3.251083E-2,-1.8240495E-2,1.0847774E-2],"categories":[],"categories_nodes":[],"categories_segments":[],"categories_sizes":[],"default_left":[0,0,0,0,0,0,0,0,0,0,0,0,0,0,0,0,0,0,0,0,0,0,0,0,0,0,0,0,0,0,0],"id":37,"left_children":[1,3,5,7,-1,9,11,13,15,17,19,21,23,25,-1,-1,-1,27,-1,-1,-1,-1,-1,-1,29,-1,-1,-1,-1,-1,-1],"loss_changes":[8.558726E1,1.311179E1,3.931819E1,6.189438E0,0E0,2.3191048E1,8.006156E0,5.7456174E0,4.497653E0,5.1979904E0,6.3082933E0,6.6593323E0,5.01496E0,5.1346784E0,0E0,0E0,0E0,7.738121E0,0E0,0E0,0E0,0E0,0E0,0E0,4.077466E0,0E0,0E0,0E0,0E0,0E0,0E0],"parents":[2147483647,0,0,1,1,2,2,3,3,5,5,6,6,7,7,8,8,9,9,10,10,11,11,12,12,13,13,17,17,24,24],"right_children":[2,4,6,8,-1,10,12,14,16,18,20,22,24,26,-1,-1,-1,28,-1,-1,-1,-1,-1,-1,30,-1,-1,-1,-1,-1,-1],"split_conditions":[4.9736476E0,1E0,1E0,3.703177E2,2.4446977E-2,1E0,3.3540292E0,1E0,3.2256294E1,8.54885E0,3.5575598E2,8.007673E0,2.0795848E0,5.952749E0,1.9474668E-2,3.1391796E-2,1.3047745E-3,7.2E1,-3.914339E-2,-6.2656873E-3,2.7913695E-2,2.0383084E-3,-4.101672E-2,2.9115677E-2,7.4E1,8.058213E-3,-4.0379213E-3,-1.3862112E-2,-3.251083E-2,-1.8240495E-2,1.0847774E-2],"split_indices":[13,14,14,11,0,15,3,15,1,13,11,2,4,3,0,0,0,0,0,0,0,0,0,0,7,0,0,0,0,0,0],"split_type":[0,0,0,0,0,0,0,0,0,0,0,0,0,0,0,0,0,0,0,0,0,0,0,0,0,0,0,0,0,0,0],"sum_hessian":[3.6051105E2,1.9360576E2,1.6690529E2,1.4690382E2,4.670194E1,1.18965805E2,4.7939484E1,1.2890056E2,1.8003265E1,9.520215E1,2.3763655E1,1.1400944E1,3.653854E1,1.0954821E2,1.9352346E1,1.28765545E1,5.126712E0,6.8376976E1,2.682517E1,1.8721924E1,5.0417323E0,7.238853E0,4.1620913E0,9.649954E0,2.6888584E1,6.757097E1,4.197724E1,2.7542631E1,4.0834347E1,4.1983485E0,2.2690235E1],"tree_param":{"num_deleted":"0","num_feature":"17","num_nodes":"31","size_leaf_vector":"1"}},{"base_weights":[-1.3415444E-3,3.963726E-1,-5.3124046E-1,8.679776E-1,-2.3714626E-1,-8.5971516E-1,3.0650082E-1,3.0374406E-2,-7.5916207E-1,-7.008291E-1,8.7978995E-1,-1.0301023E0,-2.3673795E-1,1.0407633E0,-3.9322835E-1,-3.303876E-2,2.8903915E-3,-1.1375431E0,7.366163E-1,3.0056108E-2,-9.186827E-3,-3.9752707E-2,-7.139486E-1,5.169929E-1,-1.2265834E0,3.4325317E-2,6.9098403E-3,-9.236611E-1,2.8054459E-2,1.9203096E-4,-3.4548804E-2,3.6250162E-3,2.9401256E-2,1.4187124E-2,-2.2291804E-2,3.1663746E-2,-2.6245348E-2,-1.0792989E-2,-4.7337756E-2,-5.869799E-3,-3.706667E-2],"categories":[],"categories_nodes":[],"categories_segments":[],"categories_sizes":[],"default_left":[0,0,0,0,0,0,0,0,0,0,0,0,0,0,0,0,0,0,0,0,0,0,0,0,0,0,0,0,0,0,0,0,0,0,0,0,0,0,0,0,0],"id":38,"left_children":[1,3,5,7,9,11,13,-1,15,17,19,21,23,25,27,-1,-1,29,31,-1,-1,-1,33,35,37,-1,-1,39,-1,-1,-1,-1,-1,-1,-1,-1,-1,-1,-1,-1,-1],"loss_changes":[7.731306E1,6.2615505E1,4.328707E1,4.889968E1,